tree
version=v2
num_class=1
num_tree_per_iteration=1
label_index=0
max_feature_idx=25
objective=binary sigmoid:1
feature_names=ip_device_hour_count ip_os_device_app_nextClick ip_device_count ip_app_os_count os_device_count app_by_channel_countuniq ip_app_hour_count hour_app_count ip_os_device_nextClick ip_app_device_os_channel_nextClick hour_channel_count ip_by_app_countuniq app_channel_count ip_app_by_os_countuniq ip_by_device_countuniq ip_by_channel_countuniq os_app_channel_count hour ip_os_hour_count ip_hour_count ip_count app channel device ip_device_os_by_app_countuniq os
feature_infos=[1:96178] [0:86383] [1:993761] [1:40359] [1:36186103] [1:48] [1:16373] [1:1894523] [0:86357] [0:86397] [5:884173] [1:261] [6:8848923] [1:148] [1:598] [1:159] [1:2029320] 13:5:12:11:6:10:7:9:8:14:4:15:0:3:2:1:16:23:17:22:18:19:21:20 [1:24116] [1:115195] [1:1168348] 3:12:2:9:18:15:14:1:13:11:8:21:26:23:7:6:64:20:25:27:28:19:24:22:17:29:32:10:5:151:36:47:4:56:37:45:35:150:58:94:55:183:33:46:83:62:93:82:65:60:44:72:38:66:160:110:109:39:125:88:107:117:68:215:67:75:104:134:108:103:95:53:232:266:43:76:50:30:52:74:84:148:42:59:233:48:315:282:96:0:99:363:303:121:97:137:145:146:149:273 280:107:477:245:265:153:259:134:178:121:205:466:145:379:442:459:101:237:439:232:489:480:469:135:137:128:122:219:435:140:409:236:334:328:452:377:211:424:127:173:115:130:215:244:401:315:376:19:340:212:347:125:349:445:317:105:266:258:386:3:213:481:116:319:463:412:478:234:278:364:430:400:243:111:467:343:497:124:326:487:325:113:417:402:21:449:242:371:150:17:30:110:406:118:484:182:120:13:373:448 1:2:0:3866:3543:59:5:40:6:18:154:33:16:67:82:30:21:60:37:88:50:114:7:472:11:78:211:203:381:20:396:3545:343:46 [1:96] 19:13:17:18:22:8:10:6:15:9:25:20:37:16:3:41:14:1:12:23:27:32:35:47:11:53:28:30:26:31:36:40:2:49:4:0:24:42:43:866:46:58:748:34:7:38:44:48:21:5:56:29:65:70:39:52:64:79:55:50:66:77:97:73:62:98:63:90:96:59:76:45:57:100:83:85:109:60:69:80:74:71:155:92:102:81:184:112:88:111:86:114:138:145:110:61:87:105:84:134
tree_sizes=828 877 829 887 849 777 1009 911 788 823 884 821 847 785 999 905 809 901 776 777 797 855 1044 823 892 812 869 795 742 961 893 756 1005 985 965 990 935 1070 859 1053 811 835 763 1042 846 752 762 770 1002 865 1025 958 757 1088 736 827 735 837 881 1112 824 827 717 817 901 1030 846 860 772 1095 773 1077 775 801 732 1095 895 1156 1001 836 733 781 877 940 918 765 902 861 921 745 1166 844 907 1131 927 920 955 819 1017 800 943 1104 857 759 928 1055 891 822 884 712 796 863 868 906 819 834 1104 930 991 917 868 787 900 912 1239 720 953 1025 756 1059 834 787 980 835 911 913 909 859 858 866 937 949 1041 985 1106 990 879 1157 779 1050 981 1183 1049 934 817 921 935 789 917 924 1069 830 840 914 989 986 1001 947 995 775 1301 956 930 970 1061 1065 811 862 777 907 897 828 996 904 960 929 857 890 1092 929 869 926 817 809 834 1063 837 1216 1011 732 774 931 953 1038 999 761 838 861 908 898 1013 838 742 916 955 899 1162 864 792 699 858 780 755 936 891 1081 724 1117 910 928 726 938 976 796 1017 823 924 817 914 969 1015 986 905 753 1066 894 890 889 792 1007 1112 930 903 763 1088 785 972 873 1063 884 743 936 1084 741 934 756 831 814 914 1020 968 789 796 1008 1003 1056 990 780 829 821 838 906 741 1001 1013 1080 930 853 971 866 703 751 1095 1019 954 825 1077 957 915 949 989 993 836 1042 941 924 972 901 1391 942 983 875 936 957 1102 935 923 926 847 868 1071 853 896 892 754 1026 878 923 1027 918 903 782 873 938 980 885 1011 879 894 914 999 713 1006 769 974 1234 882 882 1110 1055 972 802 1063 886 964 768 820 848 855 925 1020 1011 842 966 834 751 927 979 802 967 987 830 931 921 731 837 774 908 884 970 821 790 968 892 846 817 988 751 911 869 959 871 770 883 1028 1069 1060 872 729 877 824 879 886 839 724 918 944 822 907 937 715 932 1353 947 1009 838 932 1051 964 727 862 783 889 837 949 978 693 869 902 992 939 978 918 729 866 709 966 954 888 938 1062 798 918 840 928 926 825 1049 911 1189 954 886 905 901 1025 1050 709 922 893 853 1056 916 928 992 1072 858 820 957 831 828 899 1017 952 1086 949 977 848 820 928 765 1082 892 949 837 785 945 804 887 1002 978 966 978 933 926 722 936 966 992 930 1011 953 919 969 813 813 1129 849 804 942 775 936 772 975 900 1047 1008 789 926 759 1105 882 1043 845 781 800 893 958 719 895 900 722 833 739 870 818 869 736 819 786 903 1078 896 841 845 795 851 832 903 924 893 969 944 760 1045 868 862 953 829 970 919 930 737 971 894 871 885 808 948 800 824 973 719 704 1061 946 878 942 877 1106 965 847 817 725 878 944 891 982 709 914 1013 691 833 931 875 943 942 724 1006 846 840 788 874 919 959 825 899 774 902 912 884 945 947 978 912 1169 937 978 942 994 798 792 876 1047 864 934 1130 1009 828 969 776 872 828 833 859 856 873 1036 876 992 1068 1048 1042 954 732 988 922 955 841 818 804 1052 1027 926 821 841 1090 727 945 1070 920 885 939 835 819 779 955 835 807 952 942 754 875 955 949 942 970 818 880 784 1003 1026 824 792 979 934 880 785 913 970 1026 1055 723 904 909 920 959 1042 1018 1068 997 1022 714 930 1060 948 809 1025 939 911 885 899 1082 994 962 919 872 977 779 919 983 901 944 738 1027 826 882 897 1025 762 907 931 931 1008 1042 1065 1432 767 872 738 876 934 868 1034 1107 719 1091 884 1107 865 905 1081 1083 948 681 830 792 788 893 898 1061 1040 1047 971 891 950 738 1002 918 818 863 819 964 827 945 946 1081 1158 733 914 957 824 731 725 912 857 946 840 874 821 833 847 918 843 1149 916 933 979 873 963 938 1209 855 918 801 1165 1015 838 761 977 952 1050 908 939 825 972 904 827 883 927 929 916 912 800 1131 872 910 967 840 1049 836 922 840 1198 770

Tree=0
num_leaves=7
num_cat=3
split_feature=21 20 22 12 12 21
split_gain=3.55782e+07 1.93044e+06 622891 438047 385438 349491
threshold=0 45.500000000000007 1 21159.500000000004 21159.500000000004 2
decision_type=5 2 5 2 2 5
left_child=2 3 -1 -2 -3 -6
right_child=1 4 -4 -5 5 -7
leaf_value=-0.04266282579446809 0.18933057556400334 -0.029165440077590837 0.17848980331437223 -0.037769994444611626 -0.15414080252850704 -0.19282304814835094
leaf_count=323322 20113 363804 850664 528763 9963483 54449847
internal_value=0 -1.79936 1.70111 0.495594 -1.84831 -1.86303
internal_count=66499996 65326010 1173986 548876 64777134 64413330
cat_boundaries=0 10 25 30
cat_threshold=537396257 1351952552 1573124 570431617 1179648 0 0 0 0 134217728 0 0 0 20987904 0 0 0 0 0 536870912 0 167772160 4194304 0 2 1051392 17 0 0 4194304
shrinkage=0.1


Tree=1
num_leaves=7
num_cat=4
split_feature=21 20 22 18 21 21
split_gain=2.90564e+07 1.56683e+06 553621 351448 279393 270247
threshold=0 45.500000000000007 1 2.5000000000000004 2 3
decision_type=5 2 5 2 5 5
left_child=2 3 -1 -2 -3 -6
right_child=1 4 -4 -5 5 -7
leaf_value=0.016161498989394018 0.13834420011869639 -0.13915559291658261 0.16587572527508695 -0.060661167348388348 -0.17495353452757273 -0.018926337459688407
leaf_count=481262 103624 10039839 693217 444782 54481911 255361
internal_value=0 -1.63427 1.54304 0.441639 -1.67857 -1.73694
internal_count=66499996 65325517 1174479 548406 64777111 54737272
cat_boundaries=0 10 25 30 36
cat_threshold=537396257 1083517096 1835268 570431617 1179648 0 0 0 0 134217728 0 0 0 20987904 0 0 0 0 0 536870912 8388608 33554432 4194304 0 2 1051392 268451857 1026 0 4194304 535228622 83923010 1610612737 16384 0 8388608
shrinkage=0.1


Tree=2
num_leaves=7
num_cat=2
split_feature=2 12 22 12 7 22
split_gain=1.70522e+07 5.13662e+06 1.77866e+06 1.10208e+06 570288 446377
threshold=57.500000000000007 46566.500000000007 0 549388.00000000012 111262.50000000001 1
decision_type=2 2 5 2 2 5
left_child=3 4 -3 -1 5 -2
right_child=1 2 -4 -5 -6 -7
leaf_value=0.15127878099307085 -0.13669218602604935 0.064068667997706746 -0.15534614059724353 -0.066945188769866229 -0.12970330729261698 0.14769020973398025
leaf_count=639004 217084 435269 63911401 726796 353248 217194
internal_value=0 -1.37692 -1.503 1.30926 0.975126 1.25993
internal_count=66499996 65134196 64346670 1365800 787526 434278
cat_boundaries=0 11 26
cat_threshold=2097152 0 0 0 0 0 2097152 0 0 0 142606336 1073741824 0 0 16793600 1 0 134217728 0 0 536870912 142606336 524288 4194304 0 1073741842
shrinkage=0.1


Tree=3
num_leaves=7
num_cat=3
split_feature=13 8 22 12 22 22
split_gain=1.4456e+07 3.23404e+06 2.20532e+06 863566 421768 342547
threshold=6.5000000000000009 51.500000000000007 0 551923.00000000012 1 2
decision_type=2 8 5 2 5 5
left_child=1 4 -2 5 -1 -3
right_child=2 3 -4 -5 -6 -7
leaf_value=0.094941319763702292 0.066486968973864635 -0.092667745854121519 -0.14502831809143352 -0.066777771484960363 -0.10856271130318738 0.14586804370461945
leaf_count=84196 601932 207517 61320422 676069 3023380 586480
internal_value=0 0.752273 -1.3804 1.25909 -0.841806 1.40665
internal_count=66499996 4577642 61922354 1470066 3107576 793997
cat_boundaries=0 15 26 42
cat_threshold=2097152 0 0 131072 0 0 2097152 0 0 0 142606336 0 0 0 1073741824 1075838976 0 0 131072 0 0 2097152 0 0 0 16384 663552 0 0 604523008 4194496 262144 0 262144 12 536870912 96 52957184 65536 258 1076363264 144
shrinkage=0.1


Tree=4
num_leaves=7
num_cat=4
split_feature=21 19 22 21 13 22
split_gain=1.75596e+07 1.01678e+06 326947 294151 204273 149878
threshold=0 6.5000000000000009 1 2 1.5000000000000002 3
decision_type=5 2 5 5 2 5
left_child=2 4 -1 -3 -2 -5
right_child=1 3 -4 5 -6 -7
leaf_value=0.018063464114863498 0.10632185211451289 -0.10522769874501287 0.13531919894098215 0.13895673532617436 -0.053828595523244017 -0.14250691766050924
leaf_count=480445 150206 10045251 681993 9367 413763 54718971
internal_value=0 -1.31961 1.25791 -1.35737 0.415288 -1.42083
internal_count=66499996 65337558 1162438 64773589 563969 54728338
cat_boundaries=0 10 25 30 37
cat_threshold=537396257 1083517096 1573124 570431617 1179648 0 0 0 0 134217728 0 0 0 20987904 0 0 0 0 0 536870912 8388608 33554432 4194304 0 2 1051392 268451857 263170 0 4194304 0 0 0 0 0 0 2097152
shrinkage=0.1


Tree=5
num_leaves=7
num_cat=2
split_feature=21 11 1 21 8 11
split_gain=1.4998e+07 914270 279110 355880 262296 104693
threshold=0 7.5000000000000009 2942.5000000000005 1 24.500000000000004 28.500000000000004
decision_type=5 2 8 5 8 2
left_child=4 -2 -3 -4 -1 -6
right_child=1 2 3 -5 5 -7
leaf_value=0.028744029021403418 0.083625283616401036 -0.13853388354332899 -0.058012298314375071 -0.12254042740085398 0.1428271584285378 0.10295575402350005
leaf_count=477701 216690 42016448 3754024 19320437 141927 572769
internal_value=0 -1.24926 -1.27885 -1.09939 1.17803 1.27385
internal_count=66499996 65307599 65090909 23074461 1192397 714696
cat_boundaries=0 10 13
cat_threshold=537396257 1083517096 1573124 570431617 5373952 0 0 0 0 134217728 1051392 268451857 263170
shrinkage=0.1


Tree=6
num_leaves=7
num_cat=4
split_feature=13 8 22 22 22 22
split_gain=9.21393e+06 2.0387e+06 1.36387e+06 590352 279626 200905
threshold=6.5000000000000009 62.500000000000007 0 1 2 3
decision_type=2 8 5 5 5 5
left_child=1 4 -2 -3 -1 -5
right_child=2 3 -4 5 -6 -7
leaf_value=0.070036207631089004 0.049591723488108447 -0.10569693419313675 -0.12279799754765941 -0.020565758772210327 -0.088818657359484549 0.12386852352959087
leaf_count=128828 602874 503000 61318983 283576 3016924 645811
internal_value=0 0.639388 -1.16705 1.07835 -0.660398 1.18185
internal_count=66499996 4578139 61921857 1432387 3145752 929387
cat_boundaries=0 15 31 46 62
cat_threshold=2097152 0 0 131072 0 0 2097152 0 0 0 142606336 0 0 0 1073741824 8192 0 0 839909888 33558657 262144 1048576 2101504 520 0 1048672 18878464 65536 2 1613236224 144 1075838984 0 0 131072 0 0 2097152 1573888 0 0 0 0 0 0 262144 655360 0 0 67160064 4325952 0 8388608 270336 16778244 2684354560 536887552 168296448 4325376 545259520 262146 131074
shrinkage=0.1


Tree=7
num_leaves=7
num_cat=4
split_feature=21 12 21 22 22 4
split_gain=1.12436e+07 769023 326264 267977 206036 162509
threshold=0 21159.500000000004 1 2 3 5353666.0000000009
decision_type=5 2 5 5 5 2
left_child=3 4 5 -1 -2 -3
right_child=1 2 -4 -5 -6 -7
leaf_value=0.010397167544689305 -0.1377768312045011 -0.11528082090724562 -0.12385937213878458 0.11664029304693342 0.094832373217219407 -0.061305669932388542
leaf_count=510209 182004 4246977 54901093 679147 204674 5775892
internal_value=0 -1.13085 -1.16511 1.06766 0.548197 -0.826189
internal_count=66499996 65310640 64923962 1189356 386678 10022869
cat_boundaries=0 10 12 27 43
cat_threshold=537396257 1083517096 1573124 570431489 5373952 0 0 0 0 134217728 1051392 268435473 0 0 0 20987904 0 0 0 0 0 536870912 8388608 33554432 4194304 0 2 1073741824 0 0 16924672 0 4194304 134217728 0 0 536870912 134217728 134742016 4194304 0 1073741842 2
shrinkage=0.1


Tree=8
num_leaves=7
num_cat=2
split_feature=21 15 21 1 1 8
split_gain=9.67229e+06 772526 288962 264396 214774 197007
threshold=0 29.500000000000004 1 1305.5000000000002 1202.5000000000002 32.500000000000007
decision_type=5 2 5 8 8 8
left_child=5 4 3 -3 -2 -1
right_child=1 2 -4 -5 -6 -7
leaf_value=0.026500717491892031 -0.11470878708694898 -0.11495961226637866 -0.11964059132830457 -0.046225318694973067 0.064217025377537804 0.11236253072445027
leaf_count=481338 362561 5439276 54485921 4577793 509814 643293
internal_value=0 -1.07863 -1.12378 -0.799036 0.272659 1.0255
internal_count=66499996 65375365 64502990 10017069 872375 1124631
cat_boundaries=0 10 15
cat_threshold=537396257 1083517064 1573124 33560577 1179648 0 0 0 0 134217728 1051392 268451889 263170 0 4194304
shrinkage=0.1


Tree=9
num_leaves=7
num_cat=3
split_feature=21 11 21 22 12 4
split_gain=8.37747e+06 698958 298065 221893 181332 156680
threshold=0 12.500000000000002 1 2 21159.500000000004 5353666.0000000009
decision_type=5 2 5 5 2 2
left_child=3 -2 5 -1 -4 -3
right_child=1 2 4 -5 -6 -7
leaf_value=0.0021119486290549108 0.043519781485338166 -0.10751462280483599 0.0043402917297578284 0.10669161700967827 -0.11663926871268596 -0.052495891366734521
leaf_count=427562 557589 4269861 304267 711502 54438333 5790882
internal_value=0 -1.03361 -1.07347 0.974378 -1.15031 -0.739704
internal_count=66499996 65360932 64803343 1139064 54742600 10060743
cat_boundaries=0 10 13 28
cat_threshold=537396257 1075128456 1573124 33560705 5373952 0 0 0 0 134217728 1051392 276840497 263170 0 0 0 20987904 0 0 0 0 0 0 8388608 167772160 0 0 2
shrinkage=0.1


Tree=10
num_leaves=7
num_cat=4
split_feature=21 19 21 1 22 21
split_gain=7.26172e+06 659269 287780 266252 218132 143113
threshold=0 6.5000000000000009 1 1540.5000000000002 2 3
decision_type=5 2 5 8 5 5
left_child=4 -2 3 -3 -1 -4
right_child=1 2 5 -5 -6 -7
leaf_value=0.0050593661013156564 0.047073263016599858 -0.10562308051081748 -0.11229037583549617 -0.034412127625082813 0.10327228709655425 0.018314232130204718
leaf_count=489964 565680 5661428 54555514 4408366 645834 173210
internal_value=0 -0.991219 -1.03134 -0.698579 0.928722 -1.11039
internal_count=66499996 65364198 64798518 10069794 1135798 54728724
cat_boundaries=0 10 14 29 38
cat_threshold=537396257 1075128456 1573124 33560577 5373952 0 0 0 0 134217728 1051392 276840497 263170 536871040 0 0 0 20987904 0 0 0 0 0 536870912 8388608 33554432 0 0 2 535228638 83918848 1610612737 0 8388672 8388608 0 0 1024
shrinkage=0.1


Tree=11
num_leaves=7
num_cat=3
split_feature=21 13 21 1 15 21
split_gain=6.2729e+06 617035 288557 238556 206676 190026
threshold=0 1.5000000000000002 1 1418.5000000000002 53.500000000000007 2
decision_type=5 2 5 8 2 5
left_child=4 -2 3 -3 -1 -6
right_child=1 2 -4 -5 5 -7
leaf_value=0.1169827314087184 0.028428624410305182 -0.10172496279806974 -0.10827933944880855 -0.03240668805294443 -0.12981420890306983 0.065920715025292981
leaf_count=157188 859937 5524226 54507650 4434985 174786 841224
internal_value=0 -0.95246 -0.999725 -0.658053 0.876219 0.567646
internal_count=66499996 65326798 64466861 9959211 1173198 1016010
cat_boundaries=0 10 14 24
cat_threshold=537396257 1351952520 1573124 570431489 5373952 0 0 0 0 134217728 1051392 16433 262146 128 32 8396800 524288 536870912 131072 0 0 0 0 134217728
shrinkage=0.1


Tree=12
num_leaves=7
num_cat=3
split_feature=21 20 21 22 1 1
split_gain=5.4706e+06 563708 277106 247098 214242 189107
threshold=0 120.50000000000001 1 2 3757.5000000000005 7479.5000000000009
decision_type=5 2 5 5 10 8
left_child=3 5 4 -1 -3 -2
right_child=1 2 -4 -5 -6 -7
leaf_value=0.012811828124153952 -0.097975813482015062 -0.085291223966003013 -0.10549821418314194 0.09958603526312286 -0.012782032445976602 0.054437023220002802
leaf_count=630508 527504 7466645 54179399 530477 2489036 676427
internal_value=0 -0.917327 -0.969131 0.834887 -0.628346 0.179717
internal_count=66499996 65339011 64135080 1160985 9955681 1203931
cat_boundaries=0 10 15 28
cat_threshold=537396257 1083517096 1573124 570431489 1179648 0 0 0 0 134217728 1051392 268451857 263170 128 4194304 0 0 0 20987904 0 0 0 0 0 536870912 142606336 33554432 4194304
shrinkage=0.1


Tree=13
num_leaves=7
num_cat=2
split_feature=21 15 21 15 1 1
split_gain=4.71806e+06 525358 280638 208910 204905 190648
threshold=0 39.500000000000007 1 58.500000000000007 1018.5000000000001 87.500000000000014
decision_type=5 2 5 2 8 8
left_child=3 -2 4 -1 -3 -5
right_child=1 2 -4 5 -6 -7
leaf_value=0.11113456896146896 0.017755986768016364 -0.096857475315921704 -0.10246687285162411 -0.14381051400253961 -0.029415534931588761 0.05710134093262436
leaf_count=164043 1204293 5156032 54194053 142817 4772442 866316
internal_value=0 -0.880658 -0.933898 0.794331 -0.585652 0.47313
internal_count=66499996 65326820 64122527 1173176 9928474 1009133
cat_boundaries=0 10 14
cat_threshold=537396257 1351952520 1573124 570431489 5373952 0 0 0 0 134217728 1051392 16433 262146 128
shrinkage=0.1


Tree=14
num_leaves=7
num_cat=3
split_feature=13 22 22 22 9 9
split_gain=3.31175e+06 711983 427429 326588 271031 129045
threshold=7.5000000000000009 0 1 2 91.500000000000014 2200.5000000000005
decision_type=2 5 5 5 8 10
left_child=1 -1 5 -3 -5 -2
right_child=2 3 -4 4 -6 -7
leaf_value=-0.095467711397506261 -0.055209581583832816 -0.040719852498886808 -0.094798694143453793 -0.073032733482763804 0.08538603038521915 0.023490823215705323
leaf_count=2057837 2215709 1301132 57740816 433766 1517536 1233200
internal_value=0 0.426219 -0.870022 0.624306 0.763397 -0.194815
internal_count=66499996 5310271 61189725 3252434 1951302 3448909
cat_boundaries=0 16 31 47
cat_threshold=139264 0 0 806879744 37748865 262144 1048576 2097152 4194824 0 1048640 34082816 268632068 0 537430016 144 2097152 0 0 131072 131072 0 2097152 1048576 0 2684354560 142606368 52428800 0 0 1073741824 524288 0 0 104906752 135172 0 134217728 274688 4 2818572288 536871200 153092096 4194304 67108866 1075838976 131075
shrinkage=0.1


Tree=15
num_leaves=7
num_cat=2
split_feature=13 8 22 22 1 1
split_gain=2.87076e+06 709279 467437 213183 184945 154638
threshold=6.5000000000000009 72.500000000000014 0 1 1018.5000000000001 1202.5000000000002
decision_type=2 8 5 5 8 8
left_child=1 -1 4 -3 -2 -4
right_child=2 3 5 -5 -6 -7
leaf_value=-0.042533922176707012 -0.079847535303393294 -0.074146748709998281 -0.10593250745977241 0.087379987519199856 0.0062939660298903053 -0.075346753918692957
leaf_count=3170977 2330045 476275 32537789 931319 2596593 24456998
internal_value=0 0.441542 -0.820523 0.790551 -0.223568 -0.920971
internal_count=66499996 4578571 61921425 1407594 4926638 56994787
cat_boundaries=0 16 32
cat_threshold=2097152 0 0 2147631104 131072 0 2097152 1048576 0 2684354560 142622752 52428800 0 0 1073741824 128 8192 0 0 571490816 33558657 262144 1048576 2101248 520 536870912 1048928 35655680 65536 2 539494400 144
shrinkage=0.1


Tree=16
num_leaves=7
num_cat=2
split_feature=24 7 1 25 12 22
split_gain=2.48647e+06 865920 389639 407758 228112 166183
threshold=2.5000000000000004 7092.0000000000009 1810.5000000000002 0 1116763.0000000002 1
decision_type=2 2 8 5 2 5
left_child=4 5 -3 -4 -1 -2
right_child=1 2 3 -5 -6 -7
leaf_value=0.086005841468150684 -0.11637100799716552 -0.099674179616246278 -0.019013279577757669 -0.086693600309367194 -0.067322805121703216 0.084087435106990835
leaf_count=680702 251059 38625199 10967919 15064426 635711 274980
internal_value=0 -0.71248 -0.79052 -0.547641 0.742459 0.635804
internal_count=66499996 65183583 64657544 26032345 1316413 526039
cat_boundaries=0 4 20
cat_threshold=560553985 671359040 4096 1 0 0 0 84934656 33554624 0 134217728 0 16777224 0 134217728 34078720 4194304 0 18 16
shrinkage=0.1


Tree=17
num_leaves=7
num_cat=2
split_feature=13 22 8 1 1 22
split_gain=2.21036e+06 515252 491199 178429 150908 149582
threshold=5.5000000000000009 0 62.500000000000007 794.50000000000011 443.50000000000006 1
decision_type=2 5 8 8 8 5
left_child=2 4 -1 -3 -2 -4
right_child=1 3 5 -5 -6 -7
leaf_value=-0.035539327199844102 -0.078888398187118694 -0.1024066293088266 -0.067614801616058137 -0.068362953621421169 0.016699695108237381 0.082992012148647473
leaf_count=2619788 1401754 30998116 387805 28005229 2244270 843034
internal_value=0 -0.743972 0.449875 -0.848895 -0.0521323 0.757264
internal_count=66499996 62649369 3850627 59003345 3646024 1230839
cat_boundaries=0 16 32
cat_threshold=2097152 0 0 147456 131072 0 2097152 1048576 0 536870912 142606368 50331648 0 0 1073741824 128 8192 0 0 537936384 33558657 262144 1048576 2097408 520 2684354560 1048672 35655680 65536 2 1613236224 144
shrinkage=0.1


Tree=18
num_leaves=7
num_cat=2
split_feature=21 1 14 4 11 21
split_gain=2.62898e+06 448905 324974 281710 165274 147478
threshold=0 4092.5000000000005 1.5000000000000002 5353666.0000000009 23.500000000000004 1
decision_type=5 8 2 2 2 5
left_child=4 -2 -3 -4 -1 -6
right_child=1 2 3 -5 5 -7
leaf_value=0.10276934755604011 -0.093533309313699117 0.063640049535157964 -0.083574159991608069 -0.016285908022897349 0.10897246185454466 0.015121704383175004
leaf_count=155947 44277731 683121 12049564 8369037 37848 926748
internal_value=0 -0.729322 -0.416949 -0.528237 0.680776 0.388748
internal_count=66499996 65379453 21101722 20418601 1120543 964596
cat_boundaries=0 10 14
cat_threshold=537396257 1386632 1573124 33560577 5373952 0 0 0 0 134217728 1 262280 1048832 1
shrinkage=0.1


Tree=19
num_leaves=7
num_cat=2
split_feature=21 12 21 9 15 9
split_gain=2.31048e+06 377268 287368 285758 157313 155738
threshold=0 21159.500000000004 1 91.500000000000014 47.500000000000007 1.0000000180025095e-35
decision_type=5 2 5 8 2 10
left_child=3 -2 -3 5 -5 -1
right_child=1 2 -4 4 -6 -7
leaf_value=0.071428811948885521 0.056254519179946477 -0.04360705429457841 -0.091374400344218509 0.10501518874252179 0.042390048327963115 -0.1322529447110628
leaf_count=163654 395602 14846630 48320139 137182 1834784 802005
internal_value=0 -0.72676 -0.773305 0.540869 0.666426 -0.679998
internal_count=66499996 63562371 63166769 2937625 1971966 965659
cat_boundaries=0 10 12
cat_threshold=538445089 1386632 1573124 33560577 5373952 0 0 0 0 134217728 264832 1350565905
shrinkage=0.1


Tree=20
num_leaves=7
num_cat=1
split_feature=13 8 1 25 11 1
split_gain=1.51795e+06 428343 289754 249035 147446 130873
threshold=8.5000000000000018 104.50000000000001 794.50000000000011 0 16.500000000000004 4092.5000000000005
decision_type=2 8 8 5 2 8
left_child=1 5 -2 -4 -3 -1
right_child=2 4 3 -5 -6 -7
leaf_value=-0.083528111991040821 -0.094275932083958486 0.094060668263415442 -0.019471097917361534 -0.076786009904505959 0.02882850176511903 0.0019111859204985907
leaf_count=2122460 31854421 341282 12678676 15899743 1371637 2231777
internal_value=0 0.295741 -0.693959 -0.485178 0.625966 -0.30873
internal_count=66499996 6067156 60432840 28578419 1712919 4354237
cat_boundaries=0 24
cat_threshold=560554113 671350848 1052672 8193 131072 0 0 0 0 0 0 0 0 0 0 0 0 0 0 0 0 0 0 4096
shrinkage=0.1


Tree=21
num_leaves=7
num_cat=3
split_feature=21 1 14 22 21 1
split_gain=1.84821e+06 341086 279571 227746 177922 120245
threshold=0 2129.5000000000005 1.5000000000000002 1 2 2129.5000000000005
decision_type=5 8 2 5 5 10
left_child=3 -2 -3 5 -4 -1
right_child=1 2 4 -5 -6 -7
leaf_value=-0.046789772909886611 -0.091475508267862077 0.057854455802534635 -0.013250851227415698 0.073133050117760168 -0.071260863986775128 0.046818663766758806
leaf_count=1721095 38903215 710201 5670432 731208 18070342 693503
internal_value=0 -0.678677 -0.42037 0.491167 -0.525156 -0.0414776
internal_count=66499996 63354190 24450975 3145806 23740774 2414598
cat_boundaries=0 10 25 29
cat_threshold=538445089 1386633 1573124 33560577 5373952 0 0 0 0 134217728 0 0 0 20987904 131072 0 0 0 8 536870912 8388608 50331648 0 0 1073741824 17042048 1342193680 2 536870912
shrinkage=0.1


Tree=22
num_leaves=7
num_cat=4
split_feature=0 1 25 22 22 22
split_gain=1.18309e+06 464074 408782 214775 163724 130478
threshold=13.500000000000002 3189.5000000000005 0 1 2 3
decision_type=2 8 5 5 5 5
left_child=4 -2 3 -3 -1 -6
right_child=1 2 -4 -5 5 -7
leaf_value=-0.070178245346450938 -0.082748241101005052 -0.067708047714682459 -0.064391657264138022 0.034285728046269663 -0.0066766105546011874 0.079226313422085026
leaf_count=733439 42339853 2913241 13553572 5480681 781568 697642
internal_value=0 -0.566306 -0.258778 0.141219 0.514904 0.624573
internal_count=66499996 64287347 21947494 8393922 2212649 1479210
cat_boundaries=0 4 20 36 52
cat_threshold=560553985 671350848 1052672 8193 1073881088 0 0 559415296 37748865 262144 1056768 2359296 512 134217728 537919808 528384 4390912 0 536872960 131088 8192 0 0 536887808 33558657 262144 1048576 2371584 4194824 2147483648 1048672 18878464 65536 0 539494400 131216 655368 0 0 341313536 4325888 0 8388608 1049856 16777216 671088640 134234368 168296448 272629764 0 1074036736 2
shrinkage=0.1


Tree=23
num_leaves=7
num_cat=3
split_feature=21 11 21 22 12 16
split_gain=1.4703e+06 281478 239802 203739 105021 84632.9
threshold=0 21.500000000000004 1 2 21159.500000000004 556.50000000000011
decision_type=5 2 5 5 2 2
left_child=3 4 -3 -1 -2 -4
right_child=1 2 5 -5 -6 -7
leaf_value=0.00075544599369447717 0.10919415353174894 -0.035046513162588645 0.021542377457749812 0.074132163230305179 -0.01069267756292417 -0.08682632376375371
leaf_count=2307932 36451 14385860 392882 635977 1663989 47076905
internal_value=0 -0.620762 -0.692438 0.471537 0.153257 -0.843448
internal_count=66499996 63556087 61855647 2943909 1700440 47469787
cat_boundaries=0 5 8 23
cat_threshold=538445089 9775240 1048836 33560577 5373952 151259648 1342193713 2 0 0 0 20987904 131072 0 0 0 8 0 142606336 33554432 4194304 0 1073741824
shrinkage=0.1


Tree=24
num_leaves=7
num_cat=2
split_feature=1 22 10 4 22 1
split_gain=977609 481243 245436 219268 170341 76740.1
threshold=6840.5000000000009 0 5284.5000000000009 5353666.0000000009 1 139.50000000000003
decision_type=8 5 2 2 5 10
left_child=4 -2 -3 -4 5 -1
right_child=1 2 3 -5 -6 -7
leaf_value=-0.069433516677988902 0.070417868357088229 0.073556664962131216 -0.062565977477919241 0.0069951130479581295 -0.08250160486320729 -0.0057717570655270714
leaf_count=2932781 1374129 276686 10480930 6455570 41478629 3501271
internal_value=0 0.0837746 -0.178078 -0.307037 -0.701121 -0.298824
internal_count=66499996 18587315 17213186 16936500 47912681 6434052
cat_boundaries=0 15 31
cat_threshold=1075838976 0 0 131104 131072 4194304 2097152 524288 0 0 0 0 0 536870912 262144 2097152 0 0 2147614752 131072 0 10485760 1049600 1028 2147483648 142622752 0 262144 536870912 1074003968 130
shrinkage=0.1


Tree=25
num_leaves=7
num_cat=4
split_feature=21 14 21 15 25 21
split_gain=1.14673e+06 251477 221023 164922 134922 132701
threshold=0 1.5000000000000002 1 47.500000000000007 2 3
decision_type=5 2 5 2 5 5
left_child=3 -2 4 -1 -3 -5
right_child=1 2 -4 5 -6 -7
leaf_value=0.090011019294580635 0.031840935274968271 -0.0021291764167761808 -0.07882056307851204 0.1011714117722009 -0.066863142187784122 0.0050141509152726903
leaf_count=212966 1308000 7696327 47779075 38307 6551609 2913712
internal_value=0 -0.573153 -0.635209 0.416576 -0.295259 0.20026
internal_count=66499996 63335011 62027011 3164985 14247936 2952019
cat_boundaries=0 10 14 18 22
cat_threshold=538445089 9775241 1048838 33560577 5373952 0 0 0 0 134217728 151259648 1342193680 0 536870912 577331200 262144 8388608 1 1 262280 1048832 1
shrinkage=0.1


Tree=26
num_leaves=7
num_cat=2
split_feature=12 0 25 9 25 13
split_gain=754113 382177 253206 206208 136150 60595.1
threshold=46566.500000000007 3.5000000000000004 0 691.50000000000011 1 21.500000000000004
decision_type=2 2 5 8 5 2
left_child=4 -2 3 -3 -1 -6
right_child=1 2 -4 -5 5 -7
leaf_value=-0.12930447169279102 0.05026058974380461 -0.079766265658185731 -0.086601712763840974 -0.021806755592195314 0.080585384928678755 -0.04845699565930537
leaf_count=185885 524126 13947039 22375654 28637489 491495 338308
internal_value=0 -0.436569 -0.516117 -0.362667 0.641163 0.735807
internal_count=66499996 65484308 64960182 42584528 1015688 829803
cat_boundaries=0 24 52
cat_threshold=594501633 134479936 278003712 8193 134348800 0 0 0 0 0 0 0 0 0 0 0 0 0 0 0 0 0 0 4096 4 3548381312 338396899 16914 134348800 0 0 0 0 0 0 0 0 0 0 0 0 0 0 0 0 0 0 4096 0 0 0 4
shrinkage=0.1


Tree=27
num_leaves=7
num_cat=2
split_feature=21 15 12 25 9 15
split_gain=948221 246895 229929 225362 126523 81380.8
threshold=0 47.500000000000007 21159.500000000004 1 188.50000000000003 61.500000000000007
decision_type=5 2 2 5 8 2
left_child=1 -1 -2 4 -3 -4
right_child=2 3 5 -5 -6 -7
leaf_value=0.081609298402144023 0.050002745836730804 -0.063714334200792491 -0.020762529229132722 -0.066499947376000831 0.029972461530854991 -0.075318175252677672
leaf_count=397200 351874 1564852 2145056 3405414 6279415 52356185
internal_value=0 0.193358 -0.6368 0.0276352 0.199831 -0.699258
internal_count=66499996 11646881 54853115 11249681 7844267 54501241
cat_boundaries=0 5 11
cat_threshold=672665377 1083517081 1048838 33560577 5373952 594502657 671350848 1052672 8192 134217728 16777216
shrinkage=0.1


Tree=28
num_leaves=7
num_cat=1
split_feature=1 25 12 1 24 11
split_gain=725797 354295 195211 118687 109780 96376.5
threshold=5746.5000000000009 0 46566.500000000007 412.50000000000006 37.500000000000007 24.500000000000004
decision_type=8 5 2 10 2 2
left_child=3 5 -3 -1 -5 -2
right_child=1 2 -4 4 -6 -7
leaf_value=-0.081444749573777453 0.083464119205518772 0.050913580924907664 -0.048821414162320741 -0.049497046370785919 0.051696767055285732 0.026993260041511882
leaf_count=29487046 678840 318161 12722179 15954263 1384441 5955066
internal_value=0 0.101674 -0.291212 -0.630726 -0.3936 0.437137
internal_count=66499996 19674246 13040340 46825750 17338704 6633906
cat_boundaries=0 4
cat_threshold=560472209 671353168 9441280 1
shrinkage=0.1


Tree=29
num_leaves=7
num_cat=4
split_feature=22 10 22 15 25 25
split_gain=548347 263700 151638 138711 126733 119092
threshold=0 5284.5000000000009 1 47.500000000000007 2 3
decision_type=5 2 5 2 5 5
left_child=3 -2 5 -1 -5 -3
right_child=1 2 -4 4 -6 -7
leaf_value=0.077338652656511159 0.050848046105796955 -0.012716203516380734 -0.070276797495168353 0.023694774301414475 -0.063791800773360927 -0.083688095218562963
leaf_count=327366 593086 13013477 40698309 5062819 1999653 4805286
internal_value=0 -0.453642 -0.527409 0.258537 0.0818446 -0.276829
internal_count=66499996 59110158 58517072 7389838 7062472 17818763
cat_boundaries=0 15 31 37 41
cat_threshold=2097152 0 0 2147614752 131072 0 2097152 1572864 0 0 8404992 16777216 262144 536870912 1074003968 1073741824 0 0 100681728 4160 8192 143130624 1280 1028 2684354560 134217760 35651584 0 8388608 2097154 642 594502913 671350848 1052672 8193 134217728 16777216 594502977 134480192 282202112 1
shrinkage=0.1


Tree=30
num_leaves=7
num_cat=3
split_feature=21 1 1 11 25 22
split_gain=724720 207000 198509 128362 151175 123619
threshold=0 1810.5000000000002 480.50000000000006 19.500000000000004 1 2
decision_type=5 8 8 2 5 5
left_child=2 -2 -1 -4 -5 -3
right_child=1 5 3 4 -6 -7
leaf_value=-0.041491208177420837 -0.08583572719360269 -0.075849237152462223 0.087338483048640836 0.034491428437485344 -0.053910780820386854 -0.012865647151871213
leaf_count=4742281 33043142 7594563 223256 4747800 1898649 14250305
internal_value=0 -0.570758 0.19098 0.337094 0.204609 -0.315478
internal_count=66499996 54888010 11611986 6869705 6646449 21844868
cat_boundaries=0 10 15 31
cat_threshold=672665377 1386649 1048838 33560577 5373952 0 0 0 0 134217728 595551489 671350848 1052672 8192 134348800 139264 0 0 538050560 37884033 262144 1048576 2097408 520 0 143655232 34082816 4259840 0 1073743872 131090
shrinkage=0.1


Tree=31
num_leaves=7
num_cat=1
split_feature=21 1 1 15 11 9
split_gain=614745 215245 169559 131538 117521 109808
threshold=0 1810.5000000000002 139.50000000000003 58.500000000000007 19.500000000000004 1.0000000180025095e-35
decision_type=5 8 8 2 2 8
left_child=2 -2 5 -3 -4 -1
right_child=1 3 4 -5 -6 -7
leaf_value=0.087081853151638702 -0.083664948842804121 0.034499215084716657 0.082953510227388061 -0.041429435037011804 0.018038375496427433 -0.077310307277486709
leaf_count=218946 33144574 1085579 231888 21190475 7353082 3275452
internal_value=0 -0.526546 0.187099 -0.273762 0.300218 -0.508817
internal_count=66499996 55420628 11079368 22276054 7584970 3494398
cat_boundaries=0 5
cat_threshold=538447649 1386633 1048838 33560577 1179648
shrinkage=0.1


Tree=32
num_leaves=7
num_cat=4
split_feature=1 25 22 22 22 14
split_gain=472138 256880 121454 116993 102428 74200
threshold=3757.5000000000005 0 1 2 3 2.5000000000000004
decision_type=8 5 5 5 5 2
left_child=4 2 -2 -3 -1 -4
right_child=1 3 5 -5 -6 -7
leaf_value=-0.026444559472488516 -0.036292837368054505 0.046624283076485841 0.081049623274518798 -0.04632050260549922 -0.072898270614438154 0.029078905914872555
leaf_count=9052654 3318630 466646 720000 12210292 35031408 5700366
internal_value=0 0.0737874 0.318685 -0.318244 -0.562668 0.426883
internal_count=66499996 22415934 9738996 12676938 44084062 6420366
cat_boundaries=0 6 22 36 52
cat_threshold=560554193 671353168 277876736 1 0 16777216 139264 0 0 810549248 37748865 262144 1048576 2359296 512 2281701376 537919808 528384 4390916 0 536872960 131216 1075838976 0 0 131104 0 4194304 2097152 524288 1024 0 0 0 262144 2 1075838976 0 0 2214725664 131072 8192 10485760 1049600 1028 2147483648 142622752 0 262144 536870912 1074003968 130
shrinkage=0.1


Tree=33
num_leaves=7
num_cat=1
split_feature=1 12 16 23 24 11
split_gain=426906 222637 147776 86550.4 68920.2 65299
threshold=794.50000000000011 46566.500000000007 31065.000000000004 0 34.500000000000007 163.50000000000003
decision_type=8 2 2 5 2 2
left_child=5 3 -3 -2 -4 -1
right_child=1 2 4 -5 -6 -7
leaf_value=-0.072134659576362267 -0.12239864302619211 -0.047188419727687239 -0.0022543209437959301 0.068739988594629625 0.059170364976600359 0.006721840208841489
leaf_count=31618630 131893 11001087 18847140 539758 2082803 2278685
internal_value=0 0.0100108 -0.10681 0.59881 0.0430608 -0.655519
internal_count=66499996 32602681 31931030 671651 20929943 33897315
cat_boundaries=0 121
cat_threshold=4 134217728 0 0 0 0 0 0 0 0 0 0 0 0 16777216 0 0 0 0 0 0 0 0 0 0 0 0 0 0 0 0 0 0 0 0 0 0 0 0 0 0 0 0 0 0 0 0 0 0 0 0 0 0 0 0 0 0 0 0 0 0 0 0 0 0 0 0 0 0 0 0 0 0 0 0 0 0 0 0 0 0 0 0 0 0 0 0 0 0 0 0 0 0 0 0 0 0 0 0 0 0 0 0 0 0 0 0 0 0 0 8388608 0 0 0 0 0 0 0 0 0 67108864
shrinkage=0.1


Tree=34
num_leaves=7
num_cat=3
split_feature=15 25 22 22 12 9
split_gain=313097 243333 210536 94350.6 82088.8 73391.2
threshold=47.500000000000007 0 1 2 21159.500000000004 78.500000000000014
decision_type=2 5 5 5 2 8
left_child=3 2 5 -1 -4 -2
right_child=1 -3 4 -5 -6 -7
leaf_value=-0.053392124879730933 -0.059146934397630961 -0.072580797990662554 0.052627939381813094 0.061292140802191045 -0.048972934052704094 0.017840180331425908
leaf_count=589016 2133854 20513328 156864 1101668 31170462 10834804
internal_value=0 -0.280246 -0.138525 0.468748 -0.426346 0.111667
internal_count=66499996 64809312 44295984 1690684 31327326 12968658
cat_boundaries=0 6 22 38
cat_threshold=594502657 671350848 9441280 8193 134217728 16777216 2097152 0 0 2147486240 135232 8192 10485760 1574144 0 2684354560 142622720 52428800 262144 545259520 1074003970 642 8192 0 0 554697216 33689728 262144 1048576 2105344 520 536870912 1048640 52957184 268500992 2 537397248 146
shrinkage=0.1


Tree=35
num_leaves=7
num_cat=4
split_feature=22 10 25 22 12 25
split_gain=282779 139038 149700 121248 85238.9 69361.1
threshold=0 5284.5000000000009 1 2 46566.500000000007 3
decision_type=5 2 5 5 2 5
left_child=4 -2 3 -3 -1 -6
right_child=1 2 -4 -5 5 -7
leaf_value=0.073366666164599817 0.043251308942135483 -0.0031644520520963584 -0.078391940473614807 -0.049398510492757834 0.02871847207368465 -0.031389438354712682
leaf_count=213012 589499 15491622 17239070 27438658 2848273 2679862
internal_value=0 -0.313644 -0.372092 -0.249141 0.25588 0.107204
internal_count=66499996 60758849 60169350 42930280 5741147 5528135
cat_boundaries=0 15 19 35 59
cat_threshold=2097152 0 0 2147614752 131072 4194304 2097152 1572864 1024 0 8388608 16777216 262144 536870912 1073741824 594501953 671355200 278007808 8193 1073741824 0 0 100665856 4160 8192 143130624 5376 4 2684354560 134234144 169869312 0 8388608 2883586 642 560488449 134479936 4096 0 0 0 0 0 0 0 0 0 0 0 0 0 0 0 0 0 0 0 0 4096
shrinkage=0.1


Tree=36
num_leaves=7
num_cat=3
split_feature=15 25 22 2 9 22
split_gain=252064 210437 140453 64593.3 62614.4 57195
threshold=18.500000000000004 0 1 13867.500000000002 10036.500000000002 2
decision_type=2 5 5 2 8 5
left_child=5 2 3 -2 -4 -1
right_child=1 -3 4 -5 -6 -7
leaf_value=-0.046246690720310291 0.0059595042733254847 -0.055213191474471041 -0.058315819235716583 0.064711876613797112 -0.011087460555566911 0.070202653802462614
leaf_count=230552 8623636 29366076 15521480 2343332 9986941 427979
internal_value=0 -0.230384 -0.060069 0.155226 -0.319871 0.574618
internal_count=66499996 65841465 36475389 10966968 25508421 658531
cat_boundaries=0 4 20 36
cat_threshold=594108417 671350848 1048576 8193 2097152 0 0 2181040672 135232 4202496 10485760 1574144 4 2684354560 142622752 16777216 262144 545259520 1074003968 130 8192 0 0 541065728 135168 262144 9437184 2363392 1544 0 1065056 17305600 4259840 0 1611401218 144
shrinkage=0.1


Tree=37
num_leaves=7
num_cat=3
split_feature=21 16 23 9 9 22
split_gain=390942 125226 106345 92137.7 123483 101003
threshold=0 556.50000000000011 1 66.500000000000014 1.0000000180025095e-35 2
decision_type=5 2 5 8 10 5
left_child=2 -2 -1 4 -4 -5
right_child=1 -3 3 5 -6 -7
leaf_value=-0.10522542577539407 0.054745783900846251 -0.054127641138384419 0.088159935001638629 0.057918220215414443 -0.10180259666371599 0.0093501422428926423
leaf_count=928619 440145 48426125 257977 1439488 2225761 12781881
internal_value=0 -0.476019 0.138842 0.177564 -0.516601 0.237003
internal_count=66499996 48866270 17633726 16705107 2483738 14221369
cat_boundaries=0 5 126 142
cat_threshold=689704737 1386649 1048838 33560577 5373952 4 134217728 0 0 0 0 0 0 0 0 0 0 0 0 0 0 0 0 0 0 0 0 0 0 0 0 0 0 0 0 0 0 0 0 0 0 0 0 0 0 0 0 0 0 0 0 0 0 0 0 0 0 0 0 0 0 0 0 0 0 0 0 0 0 0 0 0 0 0 0 0 0 0 0 0 0 0 0 0 0 0 0 0 0 0 0 0 0 0 0 0 0 0 0 0 0 0 0 0 0 0 0 0 0 0 0 0 0 0 0 8388608 0 0 0 0 0 0 0 0 0 67108864 2097152 0 0 131616 135169 262144 2097152 524288 16777224 0 0 0 0 0 2048 512
shrinkage=0.1


Tree=38
num_leaves=7
num_cat=4
split_feature=1 21 22 21 25 1
split_gain=334537 231879 96512.2 87245 82578.1 74128.2
threshold=520.50000000000011 0 1 2 3 8183.5000000000009
decision_type=8 5 5 5 5 8
left_child=3 4 -3 -1 5 -2
right_child=1 2 -4 -5 -6 -7
leaf_value=0.003832624196336613 0.0050338539043077463 0.074355971209505406 -0.038087491853530907 -0.074453092238333574 -0.026581273149102604 0.050489346879475622
leaf_count=694630 6208714 171335 21451712 30436666 3466756 4070183
internal_value=0 0.0379387 -0.30406 -0.617515 0.261279 0.346588
internal_count=66499996 35368700 21623047 31131296 13745653 10278897
cat_boundaries=0 5 13 17 41
cat_threshold=555485065 1400969 1048838 570431489 1179648 0 0 0 131104 0 0 2097152 524288 538446880 8399016 256 4096 595584465 671352912 8392704 8193 134348800 0 0 0 0 0 0 0 0 0 0 0 0 0 0 0 0 0 0 4096
shrinkage=0.1


Tree=39
num_leaves=7
num_cat=4
split_feature=1 21 23 22 21 2
split_gain=296728 190326 88358 88052.4 84987.3 78781.7
threshold=567.50000000000011 0 1 2 3 25541.500000000004
decision_type=8 5 5 5 5 2
left_child=4 2 -2 -3 -1 -4
right_child=1 3 5 -5 -6 -7
leaf_value=-0.021687222812295751 -0.094526605825331941 0.061779979581772219 0.020683865526801647 -0.040660849485928768 -0.081394486443585046 0.10408584575920261
leaf_count=5147270 777833 446706 12934839 19731881 26544119 917348
internal_value=0 0.0402969 0.221285 -0.312843 -0.586662 0.259756
internal_count=66499996 34808607 14630020 20178587 31691389 13852187
cat_boundaries=0 5 126 135 139
cat_threshold=555487113 1400985 1048838 570429441 5373952 36 134217728 0 0 0 0 0 0 0 0 0 0 0 0 0 0 0 0 0 0 0 0 0 0 0 0 0 0 0 0 0 0 0 0 0 0 0 0 0 0 0 0 0 0 0 0 0 0 0 0 0 0 0 0 0 0 0 0 0 0 0 0 0 0 0 0 0 0 0 0 0 0 0 0 0 0 0 0 0 0 0 0 0 0 0 0 0 0 0 0 0 0 0 0 0 0 0 0 0 0 0 0 0 0 0 0 0 0 0 0 8388608 0 0 0 0 0 0 0 0 0 67108864 0 0 0 131104 0 0 2097152 524288 1024 739905312 1082140840 262404 4096
shrinkage=0.1


Tree=40
num_leaves=7
num_cat=1
split_feature=1 14 24 22 9 11
split_gain=249094 144191 146917 87995.3 80437.9 79404.1
threshold=384.50000000000006 1.5000000000000002 33.500000000000007 0 1.0000000180025095e-35 156.50000000000003
decision_type=8 2 2 5 8 2
left_child=4 -2 3 -3 -1 -6
right_child=1 2 -4 -5 5 -7
leaf_value=0.045586028353923773 0.062047499500915898 0.010008636126894361 0.051260283924384288 -0.030313705692530998 -0.078461980021540312 0.021894419968421674
leaf_count=1344113 935678 7193734 4316839 25128200 25354460 2226972
internal_value=0 0.0245059 -0.0547778 -0.150919 -0.583387 -0.672848
internal_count=66499996 37574451 36638773 32321934 28925545 27581432
cat_boundaries=0 16
cat_threshold=2097152 0 0 2147616800 131136 0 10485760 1573120 1024 0 0 0 262144 545259522 262146 512
shrinkage=0.1


Tree=41
num_leaves=7
num_cat=3
split_feature=21 15 24 21 4 22
split_gain=254574 130080 79124.3 84458.6 108300 56126.9
threshold=0 61.500000000000007 41.500000000000007 1 1951903.0000000002 2
decision_type=5 2 2 5 2 5
left_child=2 -2 3 -1 -5 -4
right_child=1 -3 5 4 -6 -7
leaf_value=0.040041422518769527 0.021995095234846149 -0.051552919472739579 0.3233295092811741 -0.073347773609121369 0.0065507454397644455 0.076286774876944768
leaf_count=660249 1955169 47048957 92743 3239625 12731036 772217
internal_value=0 -0.388947 0.128728 0.0893189 -0.0409424 1.05264
internal_count=66499996 49004126 17495870 16630910 15970661 864960
cat_boundaries=0 5 10 26
cat_threshold=689704705 1386649 1048838 33560577 4325376 525313 270472 1048832 33558529 131072 0 0 0 67109376 512 270336 134217728 0 8 2147483648 32 0 0 0 2097152 130
shrinkage=0.1


Tree=42
num_leaves=7
num_cat=1
split_feature=1 25 24 1 12 24
split_gain=228542 113148 79540.4 62622.7 54485.8 69391.9
threshold=6840.5000000000009 0 34.500000000000007 153.50000000000003 46566.500000000007 23.500000000000004
decision_type=8 5 2 10 2 2
left_child=2 -2 -1 -4 -3 -6
right_child=1 4 3 -5 5 -7
leaf_value=-0.046664795299201457 0.033352504527819231 0.035757172644176161 -0.047356320664223017 0.034171772788087473 -0.043813377175434515 0.043893127682150014
leaf_count=37098459 6936831 299851 6048299 4763207 9774769 1578580
internal_value=0 0.139582 -0.35273 0.0381408 -0.152534 -0.286572
internal_count=66499996 18590031 47909965 10811506 11653200 11353349
cat_boundaries=0 6
cat_threshold=560488657 537135424 1048576 1 131072 16777216
shrinkage=0.1


Tree=43
num_leaves=7
num_cat=4
split_feature=15 25 22 20 22 22
split_gain=153016 145380 76140.9 55332.8 45101.9 30583.6
threshold=9.5000000000000018 0 1 15281.000000000002 2 3
decision_type=2 5 5 2 5 5
left_child=5 2 -2 -4 -3 -1
right_child=1 4 3 -5 -6 -7
leaf_value=-0.03309196141330472 -0.050303626581176521 -0.020001797859504702 -0.00092617209087400814 0.040707158787990423 -0.058867787916921925 0.074357354940824863
leaf_count=115349 9588676 9157227 19929600 5634687 21853009 221448
internal_value=0 -0.143155 0.00849132 0.0751933 -0.421112 0.628738
internal_count=66499996 66163199 35152963 25564287 31010236 336797
cat_boundaries=0 5 21 37 53
cat_threshold=560553985 671350848 1048576 8193 131072 663560 0 0 827981824 37748865 262144 1056768 2097152 512 134217728 1048896 528384 37748736 258 0 131088 2097152 0 0 2181171232 131140 4194304 145227776 1574144 4195328 2147483648 16416 0 262144 536870912 1074036736 640 532480 0 0 557844992 135168 262144 9437184 3158272 8 0 1048640 17305600 4259840 536870912 1611401216 16
shrinkage=0.1


Tree=44
num_leaves=7
num_cat=2
split_feature=1 25 2 22 1 3
split_gain=202027 97178.1 74502.1 82510.6 65704.5 89697
threshold=670.50000000000011 0 25541.500000000004 1 1.0000000180025095e-35 406.50000000000006
decision_type=8 5 2 5 10 2
left_child=4 2 3 -2 -1 -6
right_child=1 -3 -4 -5 5 -7
leaf_value=0.029967590762186431 -0.030705238694451849 -0.03735957478078001 0.085678224720572654 0.018982601078394834 -0.077288635200677441 -0.0013903104306005893
leaf_count=2473324 6887659 8828652 1345832 16656581 23023953 7283995
internal_value=0 0.06077 0.141532 0.0969393 -0.483221 -0.575856
internal_count=66499996 33718724 24890072 23544240 32781272 30307948
cat_boundaries=0 4 20
cat_threshold=595551697 671357265 9572352 1 139264 0 0 827342848 37748865 262144 8192 2097152 520 2147483648 1048864 36179968 4259840 0 1073743872 131216
shrinkage=0.1


Tree=45
num_leaves=7
num_cat=1
split_feature=21 14 1 1 19 2
split_gain=189317 108952 76732.7 76074.2 71959.3 63046.5
threshold=0 1.5000000000000002 139.50000000000003 1.0000000180025095e-35 6722.5000000000009 462869.50000000006
decision_type=5 2 8 10 2 2
left_child=2 -2 3 -1 -5 -4
right_child=1 -3 5 4 -6 -7
leaf_value=0.059150318502047265 0.039614357257290074 -0.0428005877653449 0.01858341694829653 -0.097352502110582689 0.042893848510950287 0.20867113496772605
leaf_count=780870 1036044 47964236 12043312 3983106 620121 72307
internal_value=0 -0.331082 0.130204 -0.364478 -0.656221 0.2042
internal_count=66499996 49000280 17499716 5384097 4603227 12115619
cat_boundaries=0 5
cat_threshold=689704705 1400985 1048838 33558529 4325376
shrinkage=0.1


Tree=46
num_leaves=7
num_cat=1
split_feature=1 15 25 2 1 3
split_gain=164999 100911 117576 88645 65220.1 62969.9
threshold=253.50000000000003 9.5000000000000018 0 9930.5000000000018 1.0000000180025095e-35 1049.5000000000002
decision_type=8 2 5 2 10 2
left_child=4 -2 3 -3 -1 -6
right_child=1 2 -4 -5 5 -7
leaf_value=0.022663442856293306 0.068022214335899153 -0.002410622321966616 -0.043661243420145331 0.045686503607094149 -0.082751187678703569 0.0050660599932394156
leaf_count=2472013 230128 20781677 13058678 6851727 19560245 3545528
internal_value=0 0.0343471 -0.0184922 0.0843886 -0.527444 -0.663631
internal_count=66499996 40922210 40692082 27633404 25577786 23105773
cat_boundaries=0 5
cat_threshold=594502913 671350848 8523776 8193 131072
shrinkage=0.1


Tree=47
num_leaves=7
num_cat=3
split_feature=1 17 21 21 3 24
split_gain=160666 126517 93430.3 82185.1 62862.1 47699.4
threshold=8183.5000000000009 0 1 2 216.50000000000003 1.5000000000000002
decision_type=8 1 5 5 2 2
left_child=2 5 4 -3 -1 -2
right_child=1 3 -4 -5 -6 -7
leaf_value=-0.02129400850974833 0.037098260693900625 0.05125941303968462 -0.053861948675485306 0.00087922563802251869 0.038153853100768714 -0.043605346445622778
leaf_count=9651315 141558 5928957 36229643 6405803 3122459 5020261
internal_value=0 0.15093 -0.274438 0.308928 -0.0694138 -0.286641
internal_count=66499996 17496579 49003417 12334760 12773774 5161819
cat_boundaries=0 1 6 10
cat_threshold=63488 605949728 1351952552 524548 33558529 131072 18646797 1327240 1048834 33558529
shrinkage=0.1


Tree=48
num_leaves=7
num_cat=3
split_feature=21 15 21 23 2 18
split_gain=133482 86040.9 67941 58353.2 46555.6 43323.3
threshold=0 67.500000000000014 1 2 25541.500000000004 2.5000000000000004
decision_type=5 2 5 5 2 2
left_child=2 5 -1 -4 -5 -2
right_child=1 -3 3 4 -6 -7
leaf_value=0.089931406951065787 0.067728654094755897 -0.041943474822162985 -0.093071809988325746 0.004078729422442604 0.054799618969158664 -0.011786850706071765
leaf_count=41751 276479 44857066 939850 15868852 2337895 2178103
internal_value=0 -0.293572 0.104581 0.0640641 0.0932815 0.194317
internal_count=66499996 47311648 19188348 19146597 18206747 2454582
cat_boundaries=0 5 9 130
cat_threshold=756813569 1400969 1048837 33558529 131072 0 136 256 1 4 134217728 0 0 0 0 0 0 0 0 0 0 0 0 0 0 0 0 0 0 0 0 0 0 0 0 0 0 0 0 0 0 0 0 0 0 0 0 0 0 0 0 0 0 0 0 0 0 0 0 0 0 0 0 0 0 0 0 0 0 0 0 0 0 0 0 0 0 0 0 0 0 0 0 0 0 0 0 0 0 0 0 0 0 0 0 0 0 0 0 0 0 0 0 0 0 0 0 0 0 0 0 0 0 0 0 0 0 0 0 8388608 0 0 0 0 0 0 0 0 0 67108864
shrinkage=0.1


Tree=49
num_leaves=7
num_cat=3
split_feature=1 17 19 25 22 12
split_gain=130280 100830 59264.5 53306.3 49041.2 44991.2
threshold=6273.5000000000009 0 1273.5000000000002 1 2 46566.500000000007
decision_type=8 1 2 5 5 2
left_child=2 4 5 -3 -2 -1
right_child=1 3 -4 -5 -6 -7
leaf_value=0.04416776783186846 -0.073753372514918578 0.037399295071664465 0.0076426788651654913 -0.019170722429112136 -0.0057188656706039431 -0.042457933012114119
leaf_count=251926 2582102 8488760 10727687 3673848 4380983 36394690
internal_value=0 0.124281 -0.265692 0.286709 -0.199576 -0.377531
internal_count=66499996 19125693 47374303 12162608 6963085 36646616
cat_boundaries=0 1 7 23
cat_threshold=64512 595584465 537139521 1048576 8193 134217728 16777216 2228224 0 0 806388224 37748865 4194304 0 2367488 16777728 2818572288 1048672 33558528 4194304 16384 536872960 131090
shrinkage=0.1


Tree=50
num_leaves=7
num_cat=4
split_feature=21 11 21 23 11 25
split_gain=103852 69739.1 60683.2 53088.5 46354.5 44998.5
threshold=0 25.500000000000004 1 2 16.500000000000004 3
decision_type=5 2 5 5 2 5
left_child=2 -2 -1 -4 -5 -3
right_child=1 5 3 4 -6 -7
leaf_value=0.090953557862665721 0.019246595103426981 -0.024497220754554093 -0.088975044747017576 0.049383321919853951 0.0023203356511972881 -0.069289214154006115
leaf_count=34835 2183354 26771347 1029671 384167 18929948 17166674
internal_value=0 -0.274551 0.0855827 0.0514381 0.0786716 -0.391814
internal_count=66499996 46121375 20378621 20343786 19314115 43938021
cat_boundaries=0 5 8 129 133
cat_threshold=756944769 1384601 1048839 570429441 131072 0 8 256 4 134217728 0 0 0 0 0 0 0 0 0 0 0 0 0 0 0 0 0 0 0 0 0 0 0 0 0 0 0 0 0 0 0 0 0 0 0 0 0 0 0 0 0 0 0 0 0 0 0 0 0 0 0 0 0 0 0 0 0 0 0 0 0 0 0 0 0 0 0 0 0 0 0 0 0 0 0 0 0 0 0 0 0 0 0 0 0 0 0 0 0 0 0 0 0 0 0 0 0 0 0 0 0 0 0 0 0 0 0 0 8388608 0 0 0 0 0 0 0 0 0 67108864 594239489 266304 1048576 8193
shrinkage=0.1


Tree=51
num_leaves=7
num_cat=4
split_feature=12 21 25 9 22 21
split_gain=99209.2 123489 98920.1 54371.4 53185.7 87455.2
threshold=46566.500000000007 0 1 66.500000000000014 2 3
decision_type=2 5 5 8 5 5
left_child=4 -2 3 -3 -1 -6
right_child=1 2 -4 -5 5 -7
leaf_value=-0.060198140150879799 -0.061383874436324981 -0.048772148341052562 -0.055947905590230253 0.0094568374472097164 -0.045003887447893055 0.076754997887902521
leaf_count=411126 16498627 6142498 10351632 32493604 349665 252844
internal_value=0 -0.104768 -0.0227984 0.0495132 0.410987 0.534008
internal_count=66499996 65486361 48987734 38636102 1013635 602509
cat_boundaries=0 5 33 49 55
cat_threshold=316813426 16810016 1073741824 0 8388608 595584321 537137472 277876736 8193 134217728 16777216 0 0 0 0 0 0 0 0 0 0 0 0 0 0 0 0 0 4096 0 0 0 4 1073741824 0 0 20987904 0 4194304 134217728 0 0 536870912 142606336 134742016 0 0 1073741842 2 93645376 1417676801 787462 2115968 1179648 1
shrinkage=0.1


Tree=52
num_leaves=7
num_cat=4
split_feature=12 21 2 17 21 21
split_gain=85078.5 109213 53358.4 52511.7 47359.7 38880.3
threshold=46566.500000000007 0 14824.000000000002 1 2 3
decision_type=2 5 2 1 5 5
left_child=4 -2 3 -3 -1 -4
right_child=1 2 5 -5 -6 -7
leaf_value=0.088381374982395192 -0.059278245352336945 -0.02761801739205462 0.093366507611244862 0.0043329026122155122 0.015474521756484222 0.015515197443786259
leaf_count=99575 16500362 16001494 822186 22628268 915621 9532490
internal_value=0 -0.0996838 -0.0239933 -0.0877331 0.385966 0.306003
internal_count=66499996 65484800 48984438 38629762 1015196 10354676
cat_boundaries=0 5 6 9 12
cat_threshold=316813426 16810016 1073741824 0 8388608 65024 151127084 40 1073741824 18352256 1 1
shrinkage=0.1


Tree=53
num_leaves=7
num_cat=3
split_feature=1 23 1 21 21 3
split_gain=115213 73652.3 72406.6 70932.7 73473.9 52658
threshold=216.50000000000003 0 1.0000000180025095e-35 1 2 692.50000000000011
decision_type=8 5 10 5 5 2
left_child=2 -2 -1 -3 -5 -4
right_child=1 3 5 4 -6 -7
leaf_value=0.035275809761530101 -0.083072863876620245 -0.079508651806856331 -0.083074957339815347 -0.013025927482703462 0.022728149752409416 -0.0033930798958587503
leaf_count=2472842 2086432 3102387 17676757 17335445 19529483 4296650
internal_value=0 0.0494198 -0.459837 0.0794723 0.109595 -0.62841
internal_count=66499996 42053747 24446249 39967315 36864928 21973407
cat_boundaries=0 121 133 141
cat_threshold=1048612 134217728 0 0 0 0 0 0 0 0 0 0 0 0 0 0 0 0 0 0 0 0 0 0 0 0 0 0 0 0 0 0 0 0 0 0 0 0 0 0 0 0 0 0 0 0 0 0 0 0 0 0 0 0 0 0 0 0 0 0 0 0 0 0 0 0 0 0 0 0 0 0 0 0 0 0 0 0 0 0 0 0 0 0 0 0 0 0 0 0 0 0 0 0 0 0 0 0 0 0 0 0 0 0 0 0 0 0 0 0 8388608 0 0 0 0 0 0 0 0 0 67108864 312475728 153129026 3775403032 2105736 8651264 1 0 0 0 0 0 2048 742586402 1417742385 262145 536872960 5242880 0 0 512
shrinkage=0.1


Tree=54
num_leaves=7
num_cat=1
split_feature=1 17 20 1 1 1
split_gain=97931.4 66129.2 45710.6 51402.1 56177.3 44570.9
threshold=1540.5000000000002 0 28988.500000000004 1.0000000180025095e-35 72.500000000000014 13298.500000000002
decision_type=8 1 2 10 10 8
left_child=2 -2 3 -1 -5 -3
right_child=1 5 -4 4 -6 -7
leaf_value=0.031907911113680118 -0.012668506129909647 -0.0029231922171330284 0.0048282959874917201 -0.10115686760124723 -0.034409760891085099 0.034797842375820155
leaf_count=2045005 12251221 7922765 8578101 10873470 16704781 8124653
internal_value=0 0.0756301 -0.304365 -0.439872 -0.537881 0.215872
internal_count=66499996 28298639 38201357 29623256 27578251 16047418
cat_boundaries=0 1
cat_threshold=1113600
shrinkage=0.1


Tree=55
num_leaves=7
num_cat=2
split_feature=1 25 21 1 24 24
split_gain=84508.5 74271.9 63342.3 61509.6 56281.8 42890.6
threshold=127.50000000000001 0 1 1.0000000180025095e-35 1.5000000000000002 41.500000000000007
decision_type=8 5 5 10 2 2
left_child=3 2 -2 -1 -3 -4
right_child=1 4 5 -5 -6 -7
leaf_value=0.02711623293231985 -0.073713545845346257 0.053314976846100065 0.016324376949926573 -0.064890241857579758 -0.025073615153026176 0.094932798336147969
leaf_count=2473251 1785297 266251 19239542 18532695 23524210 678750
internal_value=0 0.0312809 0.156866 -0.447108 -0.176683 0.196826
internal_count=66499996 45494050 21703589 21005946 23790461 19918292
cat_boundaries=0 6 16
cat_threshold=560472193 671353152 9568256 8193 134217728 16777216 312475760 18919490 3774878744 538976640 8651264 1 0 0 0 134217728
shrinkage=0.1


Tree=56
num_leaves=7
num_cat=1
split_feature=1 17 3 1 1 1
split_gain=75938.2 58226.1 51837 52019.5 45536.2 39017.8
threshold=2497.5000000000005 0 216.50000000000003 1.0000000180025095e-35 46.500000000000007 37.500000000000007
decision_type=8 1 2 10 10 10
left_child=2 -2 3 -1 -5 -4
right_child=1 -3 5 4 -6 -7
leaf_value=0.038095977803598025 0.024819673557661688 -0.0079560256019965137 -0.047068430336633708 -0.10589120918448279 -0.036537088378098714 0.027349706991119938
leaf_count=1848909 11852757 13280614 4819583 7331401 19279958 8086774
internal_value=0 0.0824292 -0.242694 -0.396932 -0.489866 0.0701386
internal_count=66499996 25133371 41366625 28460268 26611359 12906357
cat_boundaries=0 1
cat_threshold=14745855
shrinkage=0.1


Tree=57
num_leaves=7
num_cat=3
split_feature=11 21 2 1 22 21
split_gain=72037.9 71638.3 48285.8 43451.8 46548 35834.2
threshold=7.5000000000000009 0 9930.5000000000018 360.50000000000006 1 2
decision_type=2 5 2 8 5 5
left_child=-1 2 5 -3 -5 -2
right_child=1 3 -4 4 -6 -7
leaf_value=0.053012153251521713 0.088245328379093768 -0.061740894007246666 0.035152409601840372 -0.051643866335126382 -0.0031791484263418365 -0.0063092629581663583
leaf_count=314144 20147 21319070 5612327 7396184 19597867 12240257
internal_value=0 -0.0677399 0.0663586 -0.245076 -0.155107 -0.032353
internal_count=66499996 66185852 17872731 48313121 26994051 12260404
cat_boundaries=0 5 21 23
cat_threshold=85724929 1327241 1048834 1 4194304 2105344 0 0 810566144 37884097 0 0 256 8 536870912 135266368 34082816 4194304 8388608 1074003970 131090 0 8
shrinkage=0.1


Tree=58
num_leaves=7
num_cat=3
split_feature=14 21 2 22 21 5
split_gain=63259.9 64287.5 47522.6 39646.2 35039.1 33123.4
threshold=1.5000000000000002 0 6224.5000000000009 1 2 2.5000000000000004
decision_type=2 5 2 5 5 2
left_child=4 2 -2 -3 -1 -5
right_child=1 3 -4 5 -6 -7
leaf_value=-0.031438539477102727 -0.0074814488794268455 -0.054949228758227088 0.027078005988165395 0.066714297136934511 0.053892771030601187 -0.018561359352042728
leaf_count=539022 10070092 16758736 8029453 97612 915097 30089984
internal_value=0 -0.0697792 0.0542557 -0.250544 0.39004 -0.13688
internal_count=66499996 65045877 18099545 46946332 1454119 30187596
cat_boundaries=0 5 21 27
cat_threshold=85724929 1327273 1048835 1 4194304 8192 0 0 558907904 33689729 262144 1056768 2359552 8 0 134217984 34082816 4194304 8388608 1073743874 131600 401635410 1362100291 1610874883 2048 12582912 1
shrinkage=0.1


Tree=59
num_leaves=7
num_cat=4
split_feature=23 12 21 1 21 21
split_gain=67574.3 65124.6 68577.1 52213.4 49195.3 31598.8
threshold=0 46566.500000000007 1 1540.5000000000002 2 3
decision_type=5 2 5 8 5 5
left_child=-1 4 -3 -4 -2 -6
right_child=1 2 3 -5 5 -7
leaf_value=-0.082266732098054657 -0.074098897504129582 -0.048339964443204604 -0.021131700111567078 0.01093315225731159 -0.010931630764001679 0.068103732747515411
leaf_count=3263623 268877 15725669 28505141 18213317 271536 251833
internal_value=0 0.0074256 -0.0453154 0.012214 0.408486 0.528073
internal_count=66499996 63236373 62444127 46718458 792246 523369
cat_boundaries=0 121 126 138 148
cat_threshold=36 134217728 0 0 0 0 0 0 0 0 0 0 0 0 0 0 0 0 0 0 0 0 0 0 0 0 0 0 0 0 0 0 0 0 0 0 0 0 0 0 0 0 0 0 0 0 0 0 0 0 0 0 0 0 0 0 0 0 0 0 0 0 0 0 0 0 0 0 0 0 0 0 0 0 0 0 0 0 0 0 0 0 0 0 0 0 0 0 0 0 0 0 0 0 0 0 0 0 0 0 0 0 0 0 0 0 0 0 0 0 8388608 0 0 0 0 0 0 0 0 0 67108864 446836850 16809984 1073741824 0 8388608 343960128 136319043 2701923352 2105736 262656 1 0 0 0 0 0 2048 1347842 1418807312 0 570427392 5373952 0 0 512 67108864 134217728
shrinkage=0.1


Tree=60
num_leaves=7
num_cat=2
split_feature=25 24 21 4 7 20
split_gain=72902.6 41406.9 40750.1 35094.2 33069.7 28654.9
threshold=0 1.5000000000000002 1 1771351.0000000002 7092.0000000000009 10043.000000000002
decision_type=5 2 5 2 2 2
left_child=2 -2 -1 -3 -4 -5
right_child=1 3 4 5 -6 -7
leaf_value=-0.06023031487184867 0.039664894187615735 -0.06302762067519542 0.05839355723020332 -0.032172489092375176 0.0082237536160232709 0.0097439830382670591
leaf_count=2365494 330234 9399002 183185 14162507 32523000 7536574
internal_value=0 -0.231402 0.0894913 -0.292628 0.117991 -0.186699
internal_count=66499996 31428317 35071679 31098083 32706185 21699081
cat_boundaries=0 6 16
cat_threshold=560537745 537135424 269615104 8193 134348800 16777216 312475760 18919490 3775403032 538976512 8651264 1 0 0 0 134217728
shrinkage=0.1


Tree=61
num_leaves=7
num_cat=2
split_feature=1 18 14 25 9 21
split_gain=58240.1 56871.2 60785.7 64040.3 43018.2 40858.7
threshold=153.50000000000003 170.50000000000003 2.5000000000000004 0 1.0000000180025095e-35 1
decision_type=8 2 2 5 8 5
left_child=4 2 5 -4 -1 -2
right_child=1 -3 3 -5 -6 -7
leaf_value=0.041246800268214638 0.064307119550610747 0.044368594653873397 -0.0021512265099446911 -0.052802152526045323 -0.05119704751473169 0.0053907013674091373
leaf_count=1344502 579322 4744596 26571139 10167722 20865733 2226982
internal_value=0 0.0315595 -0.0191899 -0.0985591 -0.376269 0.297149
internal_count=66499996 44289761 39545165 36738861 22210235 2806304
cat_boundaries=0 6 16
cat_threshold=595584257 671354952 9441280 8193 134348800 16777216 671613993 8743064 1574148 570445953 1179648 0 0 0 0 134217728
shrinkage=0.1


Tree=62
num_leaves=7
num_cat=2
split_feature=2 14 0 12 17 17
split_gain=48202.2 47298.4 47877.4 38016 31044.2 26300.6
threshold=462869.50000000006 2.5000000000000004 399.50000000000006 46566.500000000007 0 1
decision_type=2 2 2 2 1 1
left_child=1 3 5 -1 -5 -3
right_child=-2 2 -4 4 -6 -7
leaf_value=0.073831831571111312 0.1005511068934585 -0.037211906888211264 0.0093290399037159952 -0.0082784098663250816 0.050915782041197288 -0.010041755405424804
leaf_count=128018 1180683 12504860 25952646 2842905 966648 22924236
internal_value=0 -0.0297762 -0.0872792 0.239631 0.0976829 -0.192659
internal_count=66499996 65319313 61381742 3937571 3809553 35429096
cat_boundaries=0 1 2
cat_threshold=65504 1899520
shrinkage=0.1


Tree=63
num_leaves=7
num_cat=4
split_feature=21 15 2 21 21 21
split_gain=39964.1 41229.5 58143.6 42592 36583.9 36196
threshold=0 73.500000000000014 6224.5000000000009 1 2 3
decision_type=5 2 2 5 5 5
left_child=-1 4 3 -3 -2 -4
right_child=1 2 5 -5 -6 -7
leaf_value=0.088693223018219483 0.048355626768417148 -0.007771449755676273 -0.086493255429432606 -0.044057933721363664 -0.00059088372044417128 0.012134542944014309
leaf_count=25096 1106518 14151050 1448573 17399477 3713401 28655881
internal_value=0 -0.0276613 -0.0869209 -0.226117 0.201118 0.0860118
internal_count=66499996 66474900 61654981 31550527 4819919 30104454
cat_boundaries=0 2 6 16 22
cat_threshold=0 8 68068101 327808 1048832 1 671613993 336016 525572 570445953 1179648 0 0 0 0 134217728 310378608 27304002 3758101532 35664128 9437696 1
shrinkage=0.1


Tree=64
num_leaves=7
num_cat=4
split_feature=25 21 22 21 12 7
split_gain=55328.2 38753.4 34754.7 33097.8 26997 25375.4
threshold=0 1 2 3 21159.500000000004 7092.0000000000009
decision_type=5 5 5 5 2 2
left_child=1 -1 -2 4 -4 -3
right_child=2 5 3 -5 -6 -7
leaf_value=-0.062270462077766868 0.045171726638229992 0.053494986682384497 0.071508181586974015 -0.04843971982779248 -0.015994710596802804 0.0079831921826452028
leaf_count=2354580 415555 181235 64138 16726941 14369356 32388191
internal_value=0 0.0833568 -0.200573 -0.251989 -0.103722 0.110363
internal_count=66499996 34924006 31575990 31160435 14433494 32569426
cat_boundaries=0 6 12 25 35
cat_threshold=560537729 537139520 268566528 8193 134348800 16777216 312475760 18919490 3775403032 538976640 8651264 1 1073741824 0 0 131072 0 4194304 2097152 0 1024 0 0 0 262144 136186761 68231320 1048834 570429441 131072 0 0 0 0 134217728
shrinkage=0.1


Tree=65
num_leaves=7
num_cat=3
split_feature=1 23 21 21 20 24
split_gain=55018.2 42333.6 40476 32296.1 42411.4 28850.9
threshold=2129.5000000000005 0 1 2 28988.500000000004 72.000000000000014
decision_type=8 5 5 5 2 2
left_child=2 -2 5 -3 -5 -1
right_child=1 3 -4 4 -6 -7
leaf_value=-0.0057192382255883654 -0.072216542202926656 0.02091619115117151 -0.042982183573437416 -0.012038304200330602 0.065753992355819746 0.13866104932996642
leaf_count=6726466 1460044 12270017 33485439 11682111 771930 103989
internal_value=0 0.079813 -0.210076 0.104985 -0.0474914 -0.0165723
internal_count=66499996 26184102 40315894 24724058 12454041 6830455
cat_boundaries=0 121 125 129
cat_threshold=1050660 134217728 0 0 0 0 0 0 0 0 0 0 0 0 16777216 0 0 0 0 0 0 0 0 0 0 0 0 0 0 0 0 0 0 0 0 0 0 0 0 0 0 0 0 0 0 0 0 0 0 0 0 0 0 0 0 0 0 0 0 0 0 0 0 0 0 0 0 0 0 0 0 0 0 0 0 0 0 0 0 0 0 0 0 0 0 0 0 0 0 0 0 0 0 0 0 0 0 0 0 0 0 0 0 0 0 0 0 0 0 0 8388608 0 0 0 0 0 0 0 0 0 67108864 739905312 1149249704 524548 4224 17598221 278664 1048832 1
shrinkage=0.1


Tree=66
num_leaves=7
num_cat=3
split_feature=25 1 4 21 21 1
split_gain=50042 49881.3 28849.6 29142.1 26008.6 20942.3
threshold=0 1540.5000000000002 1951903.0000000002 1 2 52.500000000000007
decision_type=5 8 2 5 5 8
left_child=5 -2 4 -4 -3 -1
right_child=1 2 3 -5 -6 -7
leaf_value=-0.024491843980296579 -0.041765103414573346 0.033573634702580971 -0.075044369591787161 0.0079739099163214575 -0.049267800131188311 0.017850287534276556
leaf_count=4783519 25442977 279871 1119462 14225646 5934441 14714080
internal_value=0 -0.124029 -0.0264012 0.0451861 -0.335002 0.135871
internal_count=66499996 47002397 21559420 15345108 6214312 19497599
cat_boundaries=0 4 14 24
cat_threshold=560464001 537135424 276955136 1 310378608 1495316546 3774878744 136 262656 1 0 0 0 134217728 201851937 337944 1048832 570425345 1179648 0 0 0 0 134217728
shrinkage=0.1


Tree=67
num_leaves=7
num_cat=4
split_feature=17 19 22 9 17 22
split_gain=33619.3 33116.4 35355.1 32957.5 28020.4 20635.8
threshold=0 893.50000000000011 1 12405.000000000002 2 3
decision_type=1 2 5 8 1 5
left_child=3 2 -2 -1 -4 -3
right_child=1 5 4 -5 -6 -7
leaf_value=-0.0099818482015242207 0.024164000728467406 -0.060593015650263683 -0.054427089068899474 0.02304450568785189 -0.016115853225292263 0.021464591012900047
leaf_count=15333305 1269336 2220743 6644151 12564061 19753107 8715293
internal_value=0 -0.10141 -0.179612 0.111613 -0.244413 0.147366
internal_count=66499996 38602630 27666594 27897366 26397258 10936036
cat_boundaries=0 1 16 17 33
cat_threshold=8388863 1073741824 0 0 131072 0 0 2621440 524288 0 0 64 0 33619968 0 18 57344 1073750024 0 0 558006272 4194304 4456448 8192 2367488 4195328 671088640 0 528384 272629764 16384 2 16
shrinkage=0.1


Tree=68
num_leaves=7
num_cat=3
split_feature=1 17 25 25 2 24
split_gain=42488.1 61462.5 37584.5 34685.4 30118.5 23452
threshold=8979.5000000000018 0 1 2 9930.5000000000018 30.500000000000004
decision_type=8 1 5 5 2 2
left_child=2 -2 -1 4 -3 -4
right_child=1 3 5 -5 -6 -7
leaf_value=0.0034297513355014166 -0.042590539840853953 0.01819441492827065 -0.041859570820180547 -0.017604829214406335 0.064430270077264151 -0.005438677700547667
leaf_count=16417114 2716558 8296744 23888251 4774018 1166861 9240450
internal_value=0 0.102195 -0.135917 0.17744 0.249918 -0.287807
internal_count=66499996 16954181 49545815 14237623 9463605 33128701
cat_boundaries=0 1 5 11
cat_threshold=57344 560464017 537135184 1048580 1 595584321 536875272 8519680 8193 131072 16777216
shrinkage=0.1


Tree=69
num_leaves=7
num_cat=4
split_feature=23 25 21 20 11 21
split_gain=42704.6 32175.6 22351 21752 16835.2 24824.7
threshold=0 1 2 15281.000000000002 29.500000000000004 3
decision_type=5 5 5 2 2 5
left_child=-1 4 -3 -4 -2 -6
right_child=1 2 3 -5 5 -7
leaf_value=-0.071433845398532356 0.037413972416066137 0.080455388323884283 -0.013705885050437454 0.013891113566465991 -0.093955843900801847 0.01094800840531406
leaf_count=3263113 1499821 18574 36308557 10443067 711954 14254910
internal_value=0 0.0121683 -0.0684967 -0.0824911 0.149551 0.0797625
internal_count=66499996 63236883 46770198 46751624 16466685 14966864
cat_boundaries=0 121 149 153 159
cat_threshold=36 134217728 0 0 0 0 0 0 0 0 0 0 0 0 0 0 0 0 0 0 0 0 0 0 0 0 0 0 0 0 0 0 0 0 0 0 0 0 0 0 0 0 0 0 0 0 0 0 0 0 0 0 0 0 0 0 0 0 0 0 0 0 0 0 0 0 0 0 0 0 0 0 0 0 0 0 0 0 0 0 0 0 0 0 0 0 0 0 0 0 0 0 0 0 0 0 0 0 0 0 0 0 0 0 0 0 0 0 0 0 8388608 0 0 0 0 0 0 0 0 0 67108864 556269697 536881424 268435456 8193 0 0 0 0 0 0 0 0 0 0 0 0 0 0 0 0 0 0 0 4096 0 0 0 4 0 8 0 536870912 310378608 16883776 1611142156 2109696 9568768 1
shrinkage=0.1


Tree=70
num_leaves=7
num_cat=1
split_feature=1 1 18 11 11 25
split_gain=42308.3 50591.9 42242.3 35946.2 35869.4 41075.8
threshold=95.500000000000014 1.0000000180025095e-35 322.50000000000006 156.50000000000003 7.5000000000000009 0
decision_type=8 10 2 2 2 5
left_child=1 -1 4 -3 -2 -6
right_child=2 3 -4 -5 5 -7
leaf_value=0.03199627550195424 0.047215215190115713 -0.079301083625281293 0.054845264480913564 0.016147693073751242 0.0042441001038705309 -0.028521285636067012
leaf_count=2473461 227457 15165114 2503929 1644391 28631373 15854271
internal_value=0 -0.34918 0.0372803 -0.587694 0.00625451 -0.0244052
internal_count=66499996 19282966 47217030 16809505 44713101 44485644
cat_boundaries=0 6
cat_threshold=595550209 671350848 269615104 8193 0 16777216
shrinkage=0.1


Tree=71
num_leaves=7
num_cat=3
split_feature=23 1 17 19 1 22
split_gain=36849.3 36655.2 44057.2 37104.8 31022.9 24342
threshold=0 4436.5000000000009 1 1097.5000000000002 1.0000000180025095e-35 2
decision_type=5 8 1 2 10 5
left_child=-1 3 -3 4 -2 -4
right_child=1 2 5 -5 -6 -7
leaf_value=-0.067992690175564266 0.040138220120751543 -0.033046974548578106 -0.005849606720864306 0.014980871650491626 -0.03081957833848542 0.023168387996823865
leaf_count=3262643 1849927 2941841 4160214 10247961 31063608 12973802
internal_value=0 0.0115903 0.101759 -0.129457 -0.247669 0.159732
internal_count=66499996 63237353 20075857 43161496 32913535 17134016
cat_boundaries=0 121 122 138
cat_threshold=36 134217728 0 0 0 0 0 0 0 0 0 0 0 0 0 0 0 0 0 0 0 0 0 0 0 0 0 0 0 0 0 0 0 0 0 0 0 0 0 0 0 0 0 0 0 0 0 0 0 0 0 0 0 0 0 0 0 0 0 0 0 0 0 0 0 0 0 0 0 0 0 0 0 0 0 0 0 0 0 0 0 0 0 0 0 0 0 0 0 0 0 0 0 0 0 0 0 0 0 0 0 0 0 0 0 0 0 0 0 0 8388608 0 0 0 0 0 0 0 0 0 67108864 57344 139264 0 0 626016256 37748865 0 1048576 1048576 4 536870912 142606688 34082816 4194304 0 1073743874 131218
shrinkage=0.1


Tree=72
num_leaves=7
num_cat=2
split_feature=1 1 2 25 11 21
split_gain=36740.3 42214.7 40085.5 30289.4 29805.9 26349.2
threshold=72.500000000000014 1.0000000180025095e-35 462869.50000000006 0 156.50000000000003 1
decision_type=8 10 2 5 2 5
left_child=1 -1 3 5 -3 -2
right_child=2 4 -4 -5 -6 -7
leaf_value=0.02374574687321972 0.01591814739220734 -0.08234238226093378 0.12154301550915075 -0.021066120338459837 0.0092935639643073418 -0.0065349310661303468
leaf_count=2474013 16475989 13488111 347678 15256187 1528490 16929528
internal_value=0 -0.349495 0.0305906 0.0179249 -0.605371 0.0680615
internal_count=66499996 17490614 49009382 48661704 15016601 33405517
cat_boundaries=0 4 8
cat_threshold=594503889 671357264 278003712 1 17564429 335822985 1048839 20481
shrinkage=0.1


Tree=73
num_leaves=7
num_cat=3
split_feature=1 17 14 25 21 24
split_gain=33084.5 35540.1 35497.8 42603.8 27790.6 25185.2
threshold=11969.000000000002 0 1.5000000000000002 1 2 1.5000000000000002
decision_type=10 1 2 5 5 2
left_child=2 -2 5 4 -4 -1
right_child=1 -3 3 -5 -6 -7
leaf_value=0.067143949881057499 -0.025038602863011922 0.031835402391412103 -0.084890596441622335 -0.031472829477799537 0.0018703996374997102 0.0045301447154112986
leaf_count=120092 2388733 6323332 1434909 26530929 28454713 1247288
internal_value=0 0.195047 -0.0609276 -0.106871 -0.00553071 0.27514
internal_count=66499996 8712065 57787931 56420551 29889622 1367380
cat_boundaries=0 1 7 13
cat_threshold=2027520 560472065 537133120 9441280 8192 131072 16777216 312475696 18982978 2684882968 572535168 9568768 1
shrinkage=0.1


Tree=74
num_leaves=7
num_cat=1
split_feature=21 1 1 18 15 11
split_gain=28678.6 27495.9 41450.1 33504.5 41173.1 28598.2
threshold=0 52.500000000000007 1.0000000180025095e-35 111.50000000000001 73.500000000000014 156.50000000000003
decision_type=5 8 10 2 2 2
left_child=-1 2 -2 4 -3 -4
right_child=1 3 5 -5 -6 -7
leaf_value=0.085031405924750808 0.022239617642558846 0.019496284921106478 -0.089700317833880161 0.024602977633618607 -0.012285812851984599 0.0075566879533392091
leaf_count=25001 2472420 3787615 11238683 10377411 37218960 1379906
internal_value=0 -0.0178408 -0.340336 0.0116384 -0.0423031 -0.644418
internal_count=66499996 66474995 15091009 51383986 41006575 12618589
cat_boundaries=0 2
cat_threshold=0 8
shrinkage=0.1


Tree=75
num_leaves=7
num_cat=5
split_feature=23 12 21 21 21 21
split_gain=31070.2 29826.7 53599.9 44198.5 33151.4 25415.3
threshold=0 21159.500000000004 1 2 3 4
decision_type=5 2 5 5 5 5
left_child=-1 3 -3 -2 -4 -5
right_child=1 2 4 5 -6 -7
leaf_value=-0.06407120761044037 -0.070234496481531308 -0.55125835850179783 0.0030312878195607098 -0.0051967466187282374 -0.032123846001291964 0.088227517730704808
leaf_count=3262409 165673 12081 46763845 79781 16087827 128380
internal_value=0 0.0132148 -0.0132647 0.409171 -0.00960938 0.632121
internal_count=66499996 63237587 62863753 373834 62851672 208161
cat_boundaries=0 121 123 135 138 148
cat_threshold=2084 134217728 0 0 0 0 0 0 0 0 0 0 0 0 0 0 0 0 0 0 0 0 0 0 0 0 0 0 0 0 0 0 0 0 0 0 0 0 0 0 0 0 0 0 0 0 0 0 0 0 0 0 0 0 0 0 0 0 0 0 0 0 0 0 0 0 0 0 0 0 0 0 0 0 0 0 0 0 0 0 0 0 0 0 0 0 0 0 0 0 0 0 0 0 0 0 0 0 0 0 0 0 0 0 0 0 0 0 0 0 8388608 0 0 0 0 0 0 0 0 0 67108864 0 8192 345269792 203425793 2164528152 2107784 262656 1 0 0 0 0 0 2048 622645164 8388617 257 559361 278200448 1572868 570425345 1179648 0 0 512 67108864 134217728
shrinkage=0.1


Tree=76
num_leaves=7
num_cat=4
split_feature=25 2 15 21 22 21
split_gain=29198.9 25427.5 30679.3 36197.3 32172.3 22338.3
threshold=0 14303.000000000002 61.500000000000007 1 2 3
decision_type=5 2 2 5 5 5
left_child=-1 2 4 -4 -2 -3
right_child=1 5 3 -5 -6 -7
leaf_value=-0.099464804449156646 -0.041589401156597955 0.053581328609353801 0.0010068867401816896 -0.027499046327837284 0.030108288049401962 0.0072623570261329045
leaf_count=1463950 705857 3686642 21414312 26685683 1966900 10576652
internal_value=0 0.00322977 -0.0401951 -0.0968416 0.188129 0.206661
internal_count=66499996 65036046 50772752 48099995 2672757 14263294
cat_boundaries=0 5 9 25 30
cat_threshold=36 3618645120 69772003 66134 1024 84838149 262281 1048577 1 2236416 0 0 827343360 33689600 0 1048576 3153920 0 671088640 8405056 52432896 268435460 16384 536872960 128 18483337 1409550377 786435 536889344 4194304
shrinkage=0.1


Tree=77
num_leaves=7
num_cat=5
split_feature=23 21 5 21 22 22
split_gain=24074.6 23224.6 24315.6 22765 14488.6 8282.8
threshold=0 1 2.5000000000000004 2 3 4
decision_type=5 5 2 5 5 5
left_child=4 -2 5 -4 -1 -3
right_child=1 2 3 -5 -6 -7
leaf_value=0.006913612540816687 -0.069794968666386265 0.018587542375571694 0.081809037355843731 -0.0005840118508170447 -0.089610436784198541 0.093895000930476799
leaf_count=898234 2880297 41075 24742 60263205 2367093 25350
internal_value=0 0.00683165 0.0185032 0.00446094 -0.582909 0.641973
internal_count=66499996 63234669 60354372 60287947 3265327 66425
cat_boundaries=0 121 133 135 151 162
cat_threshold=2084 134217728 0 0 0 0 0 0 0 0 0 0 0 0 0 0 0 0 0 0 0 0 0 0 0 0 0 0 0 0 0 0 0 0 0 0 0 0 0 0 0 0 0 0 0 0 0 0 0 0 0 0 0 0 0 0 0 0 0 0 0 0 0 0 0 0 0 0 0 0 0 0 0 0 0 0 0 0 0 0 0 0 0 0 0 0 0 0 0 0 0 0 0 0 0 0 0 0 0 0 0 0 0 0 0 0 0 0 0 0 8388608 0 0 0 0 0 0 0 0 0 67108864 310378576 153129026 3775140888 2122120 8651264 1 0 0 0 0 0 2048 0 8 1073872904 0 0 117442592 4194305 8192 524288 786688 16777216 536870912 8388608 184549376 393216 545276160 2066 17 2097152 0 0 18464 0 0 134217728 0 0 0 134217728
shrinkage=0.1


Tree=78
num_leaves=7
num_cat=4
split_feature=0 15 22 21 21 22
split_gain=22038.4 32116.5 33509.5 29513.5 24176.4 20125.6
threshold=543.50000000000011 75.500000000000014 0 1 2 3
decision_type=2 2 5 5 5 5
left_child=1 2 -1 -3 -4 -2
right_child=5 3 4 -5 -6 -7
leaf_value=-0.037514166429494678 -0.058506011453780787 -0.15706661033559033 0.076797927768093285 -0.012294334576873388 0.015163316869045771 0.017663079562846493
leaf_count=1615369 2961716 196325 71276 39036682 3676823 18941805
internal_value=0 -0.0588732 0.135598 -0.136473 0.243679 0.139906
internal_count=66499996 44596475 5363468 39233007 3748099 21903521
cat_boundaries=0 16 28 38 54
cat_threshold=2236416 0 0 877675008 33558529 0 0 2101248 4194312 536870912 9453632 52432896 131076 0 536872960 130 1073741840 137411650 2164791320 2111872 8782336 1 0 0 0 134217728 0 2048 675284000 73897 524548 570445953 5242880 0 0 0 0 134217728 1073881096 0 0 558006272 0 4194304 8192 2097152 1024 134217728 256 528384 4194308 0 0 131088
shrinkage=0.1


Tree=79
num_leaves=7
num_cat=3
split_feature=1 17 22 21 3 8
split_gain=29696 27566.5 24662.9 25216.7 22902.8 20005.8
threshold=10876.500000000002 0 1 2 16.500000000000004 10.500000000000002
decision_type=10 1 5 5 2 8
left_child=2 -2 -1 5 -3 -4
right_child=1 4 3 -5 -6 -7
leaf_value=-0.030078767053948727 -0.021268010016904908 0.013968833995148614 -0.11992301702482487 -0.0034483301647806179 0.058180532449094671 0.084607902196530166
leaf_count=19952362 2477482 4719035 32314 37225369 2044720 48714
internal_value=0 0.178955 -0.060541 -0.0138938 0.282921 0.650666
internal_count=66499996 9241237 57258759 37306397 6763755 81028
cat_boundaries=0 1 17 27
cat_threshold=2027520 663552 0 0 811090432 37748737 262144 1056768 2105344 16777216 671088640 1048864 35655680 272629760 0 0 131089 16909344 24 0 0 0 0 0 0 0 134217728
shrinkage=0.1


Tree=80
num_leaves=7
num_cat=1
split_feature=1 17 3 1 1 1
split_gain=25075.7 27345.7 24750.1 33357.7 31200.9 24327.1
threshold=1107.5000000000002 0 358.50000000000006 1.0000000180025095e-35 41.500000000000007 17.500000000000004
decision_type=8 1 2 10 10 10
left_child=2 -2 3 -1 -5 -4
right_child=1 -3 5 4 -6 -7
leaf_value=0.032944125010050354 -0.037243222525782889 0.0080393075666172435 -0.051259201791165693 -0.099421999173804482 -0.027630376721649554 0.02867972512161961
leaf_count=2012829 2576816 27876303 2707114 7775542 17425042 6126350
internal_value=0 0.0506758 -0.167816 -0.296886 -0.409639 0.109074
internal_count=66499996 30453119 36046877 27213413 25200584 8833464
cat_boundaries=0 1
cat_threshold=1097728
shrinkage=0.1


Tree=81
num_leaves=7
num_cat=3
split_feature=25 1 17 19 21 1
split_gain=25012.2 18723.1 33325.7 24794.8 21447.9 16670.1
threshold=0 10876.500000000002 1 737.50000000000011 2 1.0000000180025095e-35
decision_type=5 8 1 2 5 10
left_child=1 3 -3 5 -4 -1
right_child=-2 2 4 -5 -6 -7
leaf_value=0.040715764678037669 -0.019353404606797527 -0.023678924487970581 0.039809086980364762 0.014892370656557938 0.0082060187024489261 -0.018225252413440307
leaf_count=1194263 21088303 1874407 2861544 11944170 3269086 24268223
internal_value=0 0.0431149 0.140982 -0.0396711 0.224281 -0.144687
internal_count=66499996 45411693 8005037 37406656 6130630 25462486
cat_boundaries=0 6 7 11
cat_threshold=594487505 537135424 269615104 1 131072 16777216 61440 17089293 262152 1048835 16384
shrinkage=0.1


Tree=82
num_leaves=7
num_cat=4
split_feature=25 25 17 22 9 16
split_gain=24538 21114.5 19629.1 16624.1 15927.3 10866
threshold=0 1 2 3 19057.500000000004 556.50000000000011
decision_type=5 5 1 5 8 2
left_child=5 -2 3 -3 -4 -1
right_child=1 2 4 -5 -6 -7
leaf_value=0.070656225312362361 -0.096519558987596663 0.0003078605045060343 -0.013513811179148585 -0.02952855489550096 0.013040919157696007 0.0099737137657603652
leaf_count=74457 1440181 7208534 13998827 16013628 11060212 16704157
internal_value=0 -0.074323 -0.0610537 -0.178795 0.0336708 0.116871
internal_count=66499996 49721382 48281201 23222162 25059039 16778614
cat_boundaries=0 6 11 12 27
cat_threshold=556269697 536877376 268435456 8193 134348800 16777216 36 3618636928 69830371 66134 1024 7536128 1073881088 0 0 2147616800 64 0 145227776 791808 4195336 0 8388608 134217728 33816576 537395458 2129938
shrinkage=0.1


Tree=83
num_leaves=7
num_cat=4
split_feature=1 12 21 22 21 22
split_gain=21520.2 24116.1 27212.2 25467.9 37821.3 23027.6
threshold=14742.500000000002 21159.500000000004 0 1 2 3
decision_type=10 2 5 5 5 5
left_child=1 3 5 -1 -5 -3
right_child=-2 2 -4 4 -6 -7
leaf_value=-0.069076622025274356 0.017707640694954539 0.020748613254493536 -0.040867629590136165 -0.041231123827352473 0.078077676559614201 -0.0082065335718568885
leaf_count=194900 7626863 3869769 14189509 151057 121798 40346100
internal_value=0 -0.0410949 -0.069506 0.329595 0.482672 -0.0317824
internal_count=66499996 58873133 58405378 467755 272855 44215869
cat_boundaries=0 5 21 27 42
cat_threshold=756862892 67108873 257 0 4194304 1075838976 0 0 16924672 0 4194304 134217728 0 0 0 134217728 134742016 4194304 0 1073741842 2 345302560 345049088 786438 35670272 1179648 1 1075838976 0 0 16908288 33554560 4194304 2097152 1280 1544 0 536870912 524288 33816576 0 2
shrinkage=0.1


Tree=84
num_leaves=7
num_cat=3
split_feature=20 1 2 22 21 21
split_gain=22467.2 28904.6 23655.3 32649.7 27894.3 23282.9
threshold=658590.00000000012 443.50000000000006 6224.5000000000009 0 1 2
decision_type=2 8 2 5 5 5
left_child=1 5 3 -3 -4 -1
right_child=-2 2 4 -5 -6 -7
leaf_value=0.0099787593048419939 0.061225313801783324 -0.028384390735230105 -0.093719821504312073 0.004495536460417047 0.020910095547192593 -0.039598601057699176
leaf_count=1182736 1118335 5868884 717526 16816052 12939305 27857158
internal_value=0 -0.0155931 0.0294004 -0.0402528 0.175648 -0.247242
internal_count=66499996 65381661 36341767 22684936 13656831 29039894
cat_boundaries=0 16 26 36
cat_threshold=2105344 0 0 626016768 33558656 270336 0 2359296 0 2684354560 143655008 50860032 65540 0 1073743872 128 310378544 18915522 3758101528 572526728 9437696 1 0 0 0 134217728 604636448 1083187240 260 4104 2097152 0 0 0 0 32768
shrinkage=0.1


Tree=85
num_leaves=7
num_cat=1
split_feature=1 1 0 11 10 21
split_gain=20476.8 33097.1 24158.9 22330 25727 22452.4
threshold=46.500000000000007 1.0000000180025095e-35 1023.5000000000001 7.5000000000000009 58688.500000000007 0
decision_type=8 10 2 2 2 5
left_child=1 -1 3 4 -2 -5
right_child=2 -3 -4 5 -6 -7
leaf_value=0.019622261269803879 0.069375672823538168 -0.061005421450216452 0.027695519014694348 0.0030530841805411066 -0.020389902265053914 -0.018839098464339774
leaf_count=2473464 104894 11984100 7562155 27935309 134077 16305997
internal_value=0 -0.299419 0.0216536 -0.0145403 0.373673 -0.0396597
internal_count=66499996 14457564 52042432 44480277 238971 44241306
cat_boundaries=0 5
cat_threshold=84715277 67387528 1048832 536875009 1048576
shrinkage=0.1


Tree=86
num_leaves=7
num_cat=3
split_feature=25 12 21 0 25 1
split_gain=21340.9 30722.9 25971.7 23670.1 21471 21247.7
threshold=0 46566.500000000007 1 383.50000000000006 2 16469.500000000004
decision_type=5 2 5 2 5 8
left_child=2 4 -1 5 -2 -4
right_child=1 -3 3 -5 -6 -7
leaf_value=-0.062386528802661545 -0.075665527364917523 -0.040409984795339172 -0.013672709713548229 0.018817996961661004 0.063311300668665443 0.00913020227813598
leaf_count=2475902 199330 13639722 22628369 20831121 151776 6573776
internal_value=0 -0.241548 0.0330552 0.0488207 0.350958 -0.0205365
internal_count=66499996 13990828 52509168 50033266 351106 29202145
cat_boundaries=0 6 18 46
cat_threshold=595584449 671357248 276955136 8193 134217728 16777216 310378608 153139266 3774877720 2105608 8651264 1 0 0 0 134217728 0 2048 4100 3615637632 69829347 16914 131072 0 0 0 0 0 0 0 0 0 0 0 0 0 0 0 0 0 0 4096 0 0 0 4
shrinkage=0.1


Tree=87
num_leaves=7
num_cat=4
split_feature=17 25 22 1 21 1
split_gain=20689.2 19088.8 16847.7 23023.8 16462.8 14251.1
threshold=0 1 2 5746.5000000000009 3 18395.000000000004
decision_type=1 5 5 10 5 8
left_child=-1 4 -3 -4 -2 -6
right_child=1 2 3 -5 5 -7
leaf_value=-0.056061568775547924 -0.046978839385344397 0.032594014015777939 -0.024264749417085341 0.0067075498065205762 0.0031808870580440395 0.023179551911337221
leaf_count=2334412 1835833 1116318 24811058 8391081 25677090 2334204
internal_value=0 0.0129333 -0.0884282 -0.12508 0.0813406 0.0995133
internal_count=66499996 64165584 34318457 33202139 29847127 28011294
cat_boundaries=0 1 6 21 27
cat_threshold=32768 556277889 536875328 276959232 8193 134217728 1073741824 0 0 268566528 0 4194304 2097152 524288 1024 0 0 0 262144 256 557056 8388722 153188418 3774877720 538976520 8651264 1
shrinkage=0.1


Tree=88
num_leaves=7
num_cat=3
split_feature=17 1 20 22 22 12
split_gain=19521.6 19669.4 19235.4 23646.1 20487.1 19760.6
threshold=0 16469.500000000004 28988.500000000004 1 2 21159.500000000004
decision_type=1 8 2 5 5 2
left_child=1 -1 3 -2 -4 -5
right_child=2 -3 4 5 -6 -7
leaf_value=-0.00066101884817930346 -0.03167674164239808 0.035174898475384686 0.04290350571515808 0.038951029601360466 -0.0065082690226154665 -0.0065675256568877502
leaf_count=11464578 8338336 2619898 3332151 214349 5560735 34969949
internal_value=0 0.15016 -0.0506347 -0.0907617 0.169219 -0.034018
internal_count=66499996 14084476 52415520 43522634 8892886 35184298
cat_boundaries=0 1 17 33
cat_threshold=8388639 2105344 0 0 626049536 37748737 8192 0 2098176 0 2818572288 671088672 33558528 4 16384 1074266112 131218 2752512 0 0 2248149024 133 8192 134217728 4096 16777224 2147483648 142606624 18874368 33816576 256 1075841040 130
shrinkage=0.1


Tree=89
num_leaves=7
num_cat=1
split_feature=1 1 19 2 21 6
split_gain=17325.2 21548.7 23576.2 19300.2 18769.5 18262.8
threshold=95.500000000000014 1.0000000180025095e-35 3779.5000000000005 462869.50000000006 0 28.500000000000004
decision_type=8 10 2 2 5 2
left_child=1 5 4 -2 -3 -1
right_child=3 2 -4 -5 -6 -7
leaf_value=0.055787493139769939 0.0012586508097193055 0.10909350880116256 0.0024447496486999058 0.086338977715967505 -0.080056736394034933 -0.0402418138913994
leaf_count=1039989 46912950 48347 3104541 302483 13660574 1431112
internal_value=0 -0.245397 -0.434475 0.0216564 -0.710856 0.178657
internal_count=66499996 19284563 16813462 47215433 13708921 2471101
cat_boundaries=0 4
cat_threshold=67109920 1074798600 0 4096
shrinkage=0.1


Tree=90
num_leaves=7
num_cat=5
split_feature=23 25 17 1 22 22
split_gain=19043 17832.3 16722.6 16980.2 12735.9 8282.39
threshold=0 1 2 2711.5000000000005 3 4
decision_type=5 5 1 8 5 5
left_child=4 -2 5 -4 -1 -3
right_child=1 2 3 -5 -6 -7
leaf_value=0.019589501119419348 -0.089542247884302539 0.016604632817514477 -0.0080543546395568221 0.0090812905103337012 -0.079715832154672109 -0.070586959117592982
leaf_count=620005 1196203 412955 38056580 21825901 2637189 1751163
internal_value=0 0.0167806 0.0239335 0.0357479 -0.528839 -0.498038
internal_count=66499996 63242802 62046599 59882481 3257194 2164118
cat_boundaries=0 121 126 127 143 159
cat_threshold=1048612 0 0 0 0 0 2048 0 0 0 0 0 4096 0 0 0 0 0 0 0 0 0 0 0 0 0 0 0 0 0 0 0 0 0 0 0 0 0 0 0 0 0 0 0 0 0 0 0 0 0 0 0 0 0 0 0 0 0 0 0 0 0 0 0 0 0 0 0 0 0 0 0 0 0 0 0 0 0 0 0 0 0 0 0 0 0 0 0 0 0 0 0 0 0 0 0 0 0 0 0 0 0 0 0 0 0 0 0 0 0 8388608 0 0 0 0 0 0 0 0 0 67108864 36 3618636928 69837537 82518 1024 32768 1073741832 0 0 33554464 33554433 8192 524288 524544 0 2684354560 8388608 134217728 393216 8405248 2066 1 0 0 0 4325408 0 262144 2097152 525312 16777216 0 134218048 0 65536 8388608 0 131088
shrinkage=0.1


Tree=91
num_leaves=7
num_cat=3
split_feature=25 2 12 25 25 1
split_gain=18473.7 14103.8 20564.2 19740 16564.2 16290.4
threshold=0 9930.5000000000018 46566.500000000007 1 2 1810.5000000000002
decision_type=5 2 2 5 5 8
left_child=-1 2 3 -2 -4 -3
right_child=1 5 4 -5 -6 -7
leaf_value=0.0067702421891076767 0.089485522882101654 -0.024914666948115793 -0.017150353597240701 -0.0039583553228798333 -0.061501976525094197 0.021704303772569152
leaf_count=30817538 49116 7348611 17471792 400300 5878002 4534637
internal_value=0 -0.0977054 -0.170603 0.231567 -0.234323 0.0704992
internal_count=66499996 35682458 23799210 449416 23349794 11883248
cat_boundaries=0 6 9 37
cat_threshold=556277761 536873216 276828160 1 134217728 16777216 1476397232 1151025 4 39311178 134479944 1245184 8192 0 0 0 0 0 0 0 0 0 0 0 0 0 0 0 0 0 0 0 4096 0 0 0 4
shrinkage=0.1


Tree=92
num_leaves=7
num_cat=3
split_feature=17 22 22 24 12 0
split_gain=15349.3 16121.4 15251.1 14898.2 13155.1 12507.4
threshold=0 1 2 31.500000000000004 21159.500000000004 683.50000000000011
decision_type=1 5 5 2 2 2
left_child=1 -1 3 -2 -4 -6
right_child=2 -3 4 -5 5 -7
leaf_value=-0.027152039099052856 -0.035238396222683759 0.021656855314833818 0.031417404913070039 0.0053658633901971717 -0.0073017912067575817 0.012914242176430529
leaf_count=3942290 7908617 8485171 368203 2739443 30215374 12840898
internal_value=0 0.145505 -0.0418266 -0.216981 -0.00281675 -0.0255504
internal_count=66499996 12427461 54072535 10648060 43424475 43056272
cat_boundaries=0 1 17 33
cat_threshold=31 1074405376 0 0 827867136 129 0 1056768 275456 16777216 0 320 528384 33619968 258 1073741840 16 2105352 0 0 558940672 4194817 270336 1048576 2097152 0 2818572288 1064992 34082816 272629764 0 1073741824 144
shrinkage=0.1


Tree=93
num_leaves=7
num_cat=4
split_feature=23 25 22 12 17 0
split_gain=17056.6 15228.5 15560.7 14888.9 12609.9 12033.1
threshold=0 1 2 21159.500000000004 3 369.50000000000006
decision_type=5 5 5 2 1 2
left_child=-1 4 -3 -4 -2 -6
right_child=1 2 3 -5 5 -7
leaf_value=-0.052106448307512321 -0.046889109155009809 0.034619210568714934 0.039352727735674456 -0.025021406829210405 0.00073544193024526079 0.016664547211612143
leaf_count=3266102 1501865 524746 109727 19515742 23799882 17781932
internal_value=0 0.0121396 -0.138269 -0.197804 0.0494046 0.0605777
internal_count=66499996 63233894 20150215 19625469 43083679 41581814
cat_boundaries=0 121 149 165 166
cat_threshold=36 134217728 0 0 0 0 0 0 0 0 0 0 0 0 0 0 0 0 0 0 0 0 0 0 0 0 0 0 0 0 0 0 0 0 0 0 0 0 0 0 0 0 0 0 0 0 0 0 0 0 0 0 0 0 0 0 0 0 0 0 0 0 0 0 0 0 0 0 0 0 0 0 0 0 0 0 0 0 0 0 0 0 0 0 0 0 0 0 0 0 0 0 0 0 0 0 0 0 0 0 0 0 0 0 0 0 0 0 0 0 8388608 0 0 0 0 0 0 0 0 0 67108864 595274433 537143616 268439552 8193 134217728 0 0 0 0 0 0 0 0 0 0 0 0 0 0 0 0 0 0 4096 0 0 0 4 0 0 0 131072 0 4194304 2097152 1024 4195328 0 0 2097152 262144 2 1073741824 128 32768
shrinkage=0.1


Tree=94
num_leaves=7
num_cat=2
split_feature=1 1 2 20 22 22
split_gain=15486.1 26847.7 21956.5 17449.3 15953 15137.1
threshold=46.500000000000007 1.0000000180025095e-35 462869.50000000006 171484.00000000003 0 1
decision_type=8 10 2 2 5 5
left_child=1 5 4 -3 -2 -1
right_child=2 3 -4 -5 -6 -7
leaf_value=0.059168832856242408 0.011798860509803978 -0.082907941122202233 0.083394585527965914 -0.0013752239124515285 -0.0051017371557810273 -0.027351721181529814
leaf_count=464824 17780087 10505057 429212 1475329 33837968 2007519
internal_value=0 -0.272557 0.0149282 -0.570422 0.00447595 0.173337
internal_count=66499996 14452729 52047267 11980386 51618055 2472343
cat_boundaries=0 16 32
cat_threshold=1073872896 0 0 2147649536 64 4456448 11010048 528640 1548 0 536870912 134217728 33947652 67109122 32784 513 0 0 0 32800 33685504 4194304 2097152 524288 0 2818572288 142606400 50855936 268763136 536887296 264194 129
shrinkage=0.1


Tree=95
num_leaves=7
num_cat=4
split_feature=25 1 21 2 22 21
split_gain=14685 15211.4 24305.7 18906.9 23349.8 19334.1
threshold=0 1018.5000000000001 1 6224.5000000000009 2 3
decision_type=5 8 5 2 5 5
left_child=-1 2 -2 4 -3 -5
right_child=1 3 -4 5 -6 -7
leaf_value=-0.095162433655235856 0.017953870798580608 -0.023064877572535072 -0.02526050121454192 -0.078416355702249071 0.0061271827414973619 0.022113355851417875
leaf_count=983266 1289861 4601227 33865508 615366 15279820 9864948
internal_value=0 0.0116517 -0.125327 0.0519654 -0.0117293 0.191438
internal_count=66499996 65516730 35155369 30361361 19881047 10480314
cat_boundaries=0 5 9 25 37
cat_threshold=36 3616539776 69773027 82518 1024 538576160 1149247528 262404 20608 2236416 0 0 605569536 33558528 0 1048576 1048576 4194304 2684354560 134217824 52957184 4390912 0 1075841024 130 310378544 18952386 3774877724 35664136 9437696 1 0 0 0 0 0 2048
shrinkage=0.1


Tree=96
num_leaves=7
num_cat=4
split_feature=21 21 12 21 25 11
split_gain=15128.5 17887 17566.1 24638.5 20589.4 11547.5
threshold=0 1 21159.500000000004 2 3 12.500000000000002
decision_type=5 5 2 5 5 2
left_child=-1 5 3 -3 -4 -2
right_child=1 2 4 -5 -6 -7
leaf_value=-0.10057289543407436 0.031375392430771407 -0.042276419390260223 0.0052283950629383232 0.069533050485613396 -0.026084244319730273 -0.027311828290715264
leaf_count=1191615 161555 133645 38788877 140207 9461812 16622285
internal_value=0 0.00890819 0.0390624 0.431024 0.020459 -0.207172
internal_count=66499996 65308381 48524541 273852 48250689 16783840
cat_boundaries=0 12 21 25 53
cat_threshold=1082130448 153097282 2701137944 2105610 10748416 8388609 0 512 67108864 32768 0 2048 375402594 1083222032 1074529286 6272 1179712 0 8388608 256 1024 18663168 335872001 1048576 33554432 595519299 537137216 268636160 8193 134348800 0 0 0 0 0 0 0 0 0 0 0 0 0 0 0 0 0 0 4096 0 0 0 4
shrinkage=0.1


Tree=97
num_leaves=7
num_cat=4
split_feature=25 1 17 14 25 21
split_gain=15576 14120.6 18263.2 18172.8 21731.2 16682.1
threshold=0 10876.500000000002 1 1.5000000000000002 2 3
decision_type=5 10 1 2 5 5
left_child=-1 3 -3 -2 -5 -4
right_child=1 2 5 4 -6 -7
leaf_value=-0.088278470710457177 0.022310829140107735 -0.012156728587791953 0.034749209566543482 -0.0015531041404314705 -0.028710577108176729 -0.0080354612493117004
leaf_count=1442449 1329693 3310287 4288063 36611544 18134838 1383122
internal_value=0 0.00448969 0.129615 -0.0367989 -0.0708217 0.236831
internal_count=66499996 65057547 8981472 56076075 54746382 5671185
cat_boundaries=0 5 6 12 17
cat_threshold=36 3617596544 69829351 16982 1024 2095104 560865537 671350848 9572352 8193 131072 16777216 17227662 1343488040 1310721 536873088 4194304
shrinkage=0.1


Tree=98
num_leaves=7
num_cat=5
split_feature=21 21 25 1 22 25
split_gain=14319.6 13342.3 12373.5 16992.1 9357.65 1208.63
threshold=0 1 2 1107.5000000000002 3 4
decision_type=5 5 5 8 5 5
left_child=5 -2 4 -4 -3 -1
right_child=1 2 3 -5 -6 -7
leaf_value=-0.26876514892881315 -0.10012861272889902 0.025109233581935231 -0.026152841106726683 -0.0005444975487519006 0.0030382439670417287 0.074993446025049204
leaf_count=407 1190322 4959971 25166393 23857777 11300424 24702
internal_value=0 -0.0062121 -0.0012897 -0.0546049 0.084332 0.736627
internal_count=66499996 66474887 65284565 49024170 16260395 25109
cat_boundaries=0 2 14 38 54 82
cat_threshold=0 8 1082130448 153097282 2701137944 2105610 10748416 8388609 0 512 67108864 32768 0 2048 556269569 537133376 269484032 8193 134348800 16777216 0 0 0 0 0 0 0 0 0 0 0 0 0 0 0 0 0 4096 1073741824 0 0 268470784 37748736 4456448 0 1839360 4194820 0 545259840 16777216 4456452 536870912 539754498 512 4 256 0 0 0 0 0 0 0 0 0 0 0 0 0 0 0 0 0 0 0 0 0 4096 0 0 0 4
shrinkage=0.1


Tree=99
num_leaves=7
num_cat=3
split_feature=2 21 21 21 1 1
split_gain=13833.3 12585.5 12416.5 12159.3 11440 4741.57
threshold=462869.50000000006 0 1 2 184.50000000000003 23.500000000000004
decision_type=2 5 5 5 8 8
left_child=1 -1 -3 -2 -4 -5
right_child=3 2 4 5 -6 -7
leaf_value=-0.099984179044752083 0.12204945850531948 0.070661307553319105 -0.020028615261267039 -0.035792196651120843 0.001160304561134268 0.044118498180860485
leaf_count=1205720 296744 25166 22145447 439337 41943201 444381
internal_value=0 -0.00938994 -0.00466937 0.521878 -0.0111852 0.173107
internal_count=66499996 65319534 64113814 1180462 64088648 883718
cat_boundaries=0 12 14 18
cat_threshold=1082130448 153097282 3774879768 2105610 10748416 8388609 0 512 67108864 0 0 2048 0 8 34737288 8423472 262146 2176
shrinkage=0.1


Tree=100
num_leaves=7
num_cat=4
split_feature=17 21 19 22 11 22
split_gain=12519.5 25806.5 15590.6 17073.3 15618.6 14211.5
threshold=0 1 825.50000000000011 2 31.500000000000004 3
decision_type=1 5 2 5 2 5
left_child=1 -1 3 -2 -5 -4
right_child=2 -3 5 4 -6 -7
leaf_value=0.042281129940810416 -0.027225123268330251 -0.0091908195359943871 0.030955283227761938 0.01207400681199205 -0.0099811833549155148 -0.0011914496171802251
leaf_count=2618853 8428138 6356789 6169922 5522647 27700788 9702859
internal_value=0 0.166888 -0.026663 -0.0729389 -0.0246985 0.116789
internal_count=66499996 8975642 57524354 41651573 33223435 15872781
cat_boundaries=0 1 5 21 36
cat_threshold=15 218156800 1149241369 262402 33575040 2629632 0 0 542687744 37748737 0 1048576 2097152 4194304 2684354560 680525920 16781312 268435460 0 1073743872 144 2752512 0 0 336087072 133 4202496 134742016 262144 16777224 0 680542208 134217728 262144 67109122 2099216
shrinkage=0.1


Tree=101
num_leaves=7
num_cat=4
split_feature=17 23 22 19 11 22
split_gain=11030.3 10688.8 11545.8 10877.3 18010 13920.4
threshold=0 1 2 682.50000000000011 29.500000000000004 3
decision_type=1 5 5 2 2 5
left_child=-1 2 -2 4 -3 -5
right_child=1 3 -4 5 -6 -7
leaf_value=-0.043393149092094879 0.023109247766806919 0.013256119984864843 -0.072500480667824316 -0.19611038307471551 -0.0080938605197071259 0.01361367743196387
leaf_count=2333547 706378 5444577 2431841 129363 38176464 17277826
internal_value=0 0.00923309 -0.41626 0.0186025 -0.0198374 0.126466
internal_count=66499996 64166449 3138219 61028230 43621041 17407189
cat_boundaries=0 1 122 138 154
cat_threshold=32768 1048612 134217728 0 0 0 0 2048 0 0 0 0 0 0 0 0 0 0 0 0 0 0 0 0 0 0 0 0 0 0 0 0 0 0 0 0 0 0 0 0 0 0 0 0 0 0 0 0 0 0 0 0 0 0 0 0 0 0 0 0 0 0 0 0 0 0 0 0 0 0 0 0 0 0 0 0 0 0 0 0 0 0 0 0 0 0 0 0 0 0 0 0 0 0 0 0 0 0 0 0 0 0 0 0 0 0 0 0 0 0 0 8388608 0 0 0 0 0 0 0 0 0 67108864 1073741832 0 0 117456928 0 8192 524288 256 16777216 2684354560 9437184 134742016 393216 8405248 2066 17 0 0 0 131072 0 0 0 0 0 0 0 4096 0 0 0 16
shrinkage=0.1


Tree=102
num_leaves=7
num_cat=4
split_feature=17 21 24 19 22 21
split_gain=11555.2 17822.3 22486.6 16412.1 13282 12216.9
threshold=0 1 2.5000000000000004 1177.5000000000002 2 3
decision_type=1 5 2 2 5 5
left_child=5 3 4 -2 -3 -1
right_child=1 2 -4 -5 -6 -7
leaf_value=0.016618637706429878 -0.0043029940205422069 -0.065901226862625256 -0.026043369977800275 0.031363041889591846 0.068657594126351487 -0.0021255896327734159
leaf_count=8217327 13075647 165907 16904211 4336030 80418 23720456
internal_value=0 -0.0659714 -0.199281 0.0346048 0.444052 0.064166
internal_count=66499996 34562213 17150536 17411677 246325 31937783
cat_boundaries=0 1 6 21 25
cat_threshold=8389119 1966604 67190792 1573122 570425344 4194304 2629632 0 0 641729024 135169 4456448 0 2097408 1032 0 143654976 19398656 4194304 0 1613236226 83922816 1074038793 261 536887296
shrinkage=0.1


Tree=103
num_leaves=7
num_cat=2
split_feature=25 1 6 17 1 1
split_gain=12487.7 10693.3 17329.1 19125.7 14534.1 20914.4
threshold=0 298.50000000000006 37.500000000000007 1 1.0000000180025095e-35 17.500000000000004
decision_type=5 8 2 1 10 10
left_child=-1 4 3 -3 -2 -6
right_child=1 2 -4 -5 5 -7
leaf_value=-0.090223261309321082 0.023779398180447428 -0.012461460418387298 0.020224968705571209 0.007930839692301005 -0.072721919606716603 -0.010293340282621518
leaf_count=1065132 2445967 12763880 12125137 14130930 6812258 17156692
internal_value=0 0.00711546 0.0322794 -0.0112854 -0.149299 -0.249023
internal_count=66499996 65434864 39019947 26894810 26414917 23968950
cat_boundaries=0 5 6
cat_threshold=36 3615515776 69772003 82518 1024 1113856
shrinkage=0.1


Tree=104
num_leaves=7
num_cat=5
split_feature=21 22 11 21 21 25
split_gain=11004.1 11568.8 10902.1 19946.2 14948 8485.41
threshold=0 1 7.5000000000000009 2 3 4
decision_type=5 5 2 5 5 5
left_child=-1 5 4 -4 -3 -2
right_child=1 2 3 -5 -6 -7
leaf_value=0.069080223598210505 -0.0086985267011620068 -0.06675276669896861 -0.12751678871945696 0.0018573201815428944 0.04456497772623419 -0.046674227458286602
leaf_count=25060 16462750 59990 268584 45592591 173083 3917938
internal_value=0 -0.00645887 0.0285 0.0107603 0.320317 -0.128638
internal_count=66499996 66474936 46094248 45861175 233073 20380688
cat_boundaries=0 2 18 30 42 46
cat_threshold=0 8 2105352 0 0 559431680 4194433 0 1048576 3153920 16777220 2818572288 288 36179968 4194304 0 1610612736 144 1077936144 1545614402 3238008856 2105602 10879488 1 0 512 0 0 0 2048 1199584081 136320067 2164267035 8192 8650752 0 0 512 0 0 0 2048 39790411 4160 4325376 98817
shrinkage=0.1


Tree=105
num_leaves=7
num_cat=5
split_feature=23 17 22 21 21 6
split_gain=11359 10867.8 12104.4 9948.52 9802.05 9431.54
threshold=0 1 2 3 4 55.500000000000007
decision_type=5 1 5 5 5 2
left_child=4 2 -2 -3 -1 -4
right_child=1 3 5 -5 -6 -7
leaf_value=0.0070486496065223433 0.019059993823644178 0.070938332738082255 -0.057600523308099949 0.0012121420438889854 -0.079038100459965399 0.001503099719829985
leaf_count=895892 678833 23553 3100935 57342964 2359400 2098419
internal_value=0 0.000893953 -0.238954 0.0179065 -0.455553 -0.398691
internal_count=66499996 63244704 5878187 57366517 3255292 5199354
cat_boundaries=0 121 122 138 140 144
cat_threshold=2084 0 0 0 0 0 2048 0 0 0 0 0 0 0 0 0 0 0 0 0 0 0 0 0 0 0 0 0 0 0 0 0 0 0 0 0 0 0 0 0 0 0 0 0 0 0 0 0 0 0 0 0 0 0 0 0 0 0 0 0 0 0 0 0 0 0 0 0 0 0 0 0 0 0 0 0 0 0 0 0 0 0 0 0 0 0 0 0 0 0 0 0 0 0 0 0 0 0 0 0 0 0 0 0 0 0 0 0 0 0 8388608 0 0 0 0 0 0 0 0 0 67108864 1097728 0 0 0 2164391968 0 4456448 10485760 1836288 0 0 134218048 0 33751040 0 0 131072 0 8 606863496 93358113 536871171 16512
shrinkage=0.1


Tree=106
num_leaves=7
num_cat=3
split_feature=0 14 22 25 16 22
split_gain=10553.3 17491.5 20536.9 15905 14980.9 12873
threshold=383.50000000000006 4.5000000000000009 0 1 556.50000000000011 2
decision_type=2 2 5 5 2 5
left_child=1 2 -1 5 -4 -2
right_child=3 -3 4 -5 -6 -7
leaf_value=0.036674989253026029 -0.22339630232095919 -0.013093393732682666 0.059696813824356189 -0.032058949356583308 -0.0061986968595167512 0.013471827078566
leaf_count=1504802 64275 27323918 94699 4751042 9762856 22998404
